#include <Arduino.h>
#include <math.h>
#include <TM1637.h>

// ===== CONFIG =====
#define ADC_PIN             36
#define FFT_SIZE            16
#define SAMPLE_RATE         4000
#define SMOOTH_WINDOW       4
#define CLK                 42
#define DIO                 41
#define LED_PIN             48
#define DETECTION_THRESHOLD 0.7f

TM1637 tm(CLK, DIO);

// ===== GLOBALS =====
float samples[FFT_SIZE];
float real_buf[FFT_SIZE];
float imag_buf[FFT_SIZE];
float confidence = 0.0f;

// ===== MOVING AVERAGE =====
float smoothSample(float newSample) {
    static float buffer[SMOOTH_WINDOW] = {0};
    static int idx = 0;
    static float sum = 0;
    sum -= buffer[idx];
    buffer[idx] = newSample;
    sum += newSample;
    idx = (idx + 1) % SMOOTH_WINDOW;
    return sum / SMOOTH_WINDOW;
}

// ===== 16-POINT DFT =====
void computeFFT() {
    for (int k = 0; k < FFT_SIZE; k++) {
        real_buf[k] = 0; imag_buf[k] = 0;
        for (int n = 0; n < FFT_SIZE; n++) {
            float angle = 2 * PI * k * n / FFT_SIZE;
            real_buf[k] += samples[n] * cos(angle);
            imag_buf[k] -= samples[n] * sin(angle);
        }
    }
}

void getMagnitudes(float *mag) {
    for (int i = 0; i < FFT_SIZE; i++)
        mag[i] = sqrtf(real_buf[i]*real_buf[i] + imag_buf[i]*imag_buf[i]);
}

// ===== DRONENET WEIGHTS (trained, baked from drone_model.pth) =====
static const float W0[] = {-0.2711332f, -0.3323691f, -0.2672527f, -0.1610999f, 0.1155819f, 0.0742935f, 0.0269265f, 0.0737949f, 0.0909406f, -0.0578745f, 0.0661597f, 0.0902575f, 0.0291164f, 0.0525489f, 0.0205868f, 0.0720635f, -0.1694378f, 0.1757667f, 0.2044359f, -0.0613301f, -0.0047023f, -0.0005378f, -0.0433078f, -0.0319074f, -0.0883484f, -0.0647437f, -0.0489030f, 0.0119850f, 0.0384205f, 0.0846475f, -0.0023601f, -0.0629727f, -0.2971131f, -0.0959111f, -0.0168760f, -0.0806322f, 0.1804069f, 0.0853866f, -0.0638257f, -0.0573622f, 0.0237014f, 0.0611479f, 0.0615283f, 0.1299636f, 0.0532165f, -0.0043005f, -0.0343550f, -0.0935933f, -0.2765528f, -0.0078552f, 0.1775488f, -0.0407421f, -0.0723136f, 0.1211899f, 0.1386162f, 0.1499794f, 0.1152112f, -0.0509793f, -0.0612820f, -0.0989124f, -0.2237159f, -0.2292488f, -0.1791782f, -0.0782530f, -0.0755250f, -0.4534944f, 0.2393001f, -0.0701468f, 0.0435806f, -0.0766592f, 0.1183854f, 0.0394182f, -0.1146705f, -0.1757007f, -0.1985009f, -0.2120231f, 0.0461524f, -0.0787721f, 0.0711489f, 0.1766615f, -0.0392402f, 0.0664569f, -0.0771625f, 0.0776993f, -0.0088363f, -0.0308376f, -0.0138267f, -0.2745162f, -0.1123450f, -0.1734953f, -0.2873817f, 0.2271749f, 0.2764900f, 0.0841129f, 0.0632098f, -0.0329587f, -0.1067053f, -0.0162773f, -0.1492237f, -0.0975159f, -0.2171571f, -0.0231508f, -0.0402121f, -0.1307456f, -0.2426069f, -0.1017693f, 0.0995332f, -0.1441967f, 0.0125732f, -0.1013680f, 0.1304095f, 0.0911242f, 0.0436420f, -0.0165333f, 0.1083372f, -0.0787213f, 0.5150259f, -0.2517225f, 0.0226399f, -0.1068916f, 0.2046379f, 0.1318481f, 0.0987666f, 0.0699385f, 0.0780688f, 0.0077014f, -0.0228151f, -0.0172072f, 0.0979040f, 0.1109074f, 0.0688827f, 0.2721486f, -0.1155234f, 0.0821954f, 0.0830302f, -0.0224518f, -0.0101869f, -0.0005221f, -0.1481535f, 0.0878133f, 0.0994321f, 0.0100996f, -0.0821775f, 0.0552013f, 0.0111722f, -0.0145691f, 0.2596512f, 0.0647718f, 0.3857249f, 0.0954866f, -0.0167358f, -0.1255747f, 0.0878737f, 0.0450096f, -0.1909904f, -0.0479036f, -0.1015408f, -0.2025722f, -0.1855897f, 0.1664869f, 0.3213978f, 0.1287247f, -0.0648474f, 0.0474696f, 0.2988523f, -0.5277804f, -0.5649837f, -0.4109150f, -0.1459129f, 0.0222644f, 0.0870051f, -0.0316664f, -0.0093646f, 0.1266460f, 0.0369277f, -0.0584245f, 0.1874089f, -0.0993330f, 0.0694997f, 0.0704265f, -0.0803221f, 0.0512446f, 0.2277481f, 0.1092216f, 0.0085841f, 0.0116525f, 0.0115155f, -0.0080181f, -0.0121854f, -0.0058226f, 0.0015483f, -0.0306144f, 0.0536425f, -0.0024193f, 0.0218143f, 0.0304980f, -0.0989837f, -0.0380050f, -0.0790992f, 0.0854791f, 0.0111181f, -0.0856079f, 0.0702894f, -0.1382401f, -0.0114027f, -0.2357555f, -0.2378643f, -0.0835798f, -0.0947448f, 0.0513409f, 0.0128418f, -0.0033528f, 0.1689617f, 0.1515243f, -0.0097530f, -0.0652923f, -0.0068230f, -0.1423540f, -0.2771585f, -0.0832943f, -0.1116635f, -0.1519390f, 0.3315276f, 0.2426365f, 0.1739129f, 0.1884875f, 0.0451797f, -0.0046129f, 0.0128114f, -0.0763853f, -0.0373076f, -0.0441399f, 0.1241427f, 0.1491385f, -0.0828650f, 0.0380353f, -0.0896895f, 0.0124636f, -0.0551528f, -0.0319899f, 0.0915382f, 0.0049819f, 0.0059634f, -0.0239278f, -0.0176196f, -0.3091306f, -0.4781975f, 0.0266904f, 0.0435978f, -0.0283972f, -0.2268762f, 0.0145821f, 0.0088465f, 0.0593582f, 0.1758483f, 0.0336102f, -0.0381747f, -0.0167615f, -0.1557722f, -0.1132147f, -0.1682742f, -0.1943564f, -0.1210955f, 0.3332112f, -0.1069821f, -0.2342332f, -0.1506871f, -0.0199340f, 0.0637329f, 0.1805238f, -0.0995526f, 0.0794393f, -0.0118421f, -0.0019082f, 0.0146071f, -0.0323950f, -0.0635974f, 0.1464033f, -0.0961126f, -0.0464565f, 0.2606075f, 0.2552443f, 0.0795255f, 0.2540818f, -0.0039031f, -0.2527194f, -0.2403211f, 0.3381505f, 0.3196077f, -0.0899692f, -0.0604711f, -0.0286856f, -0.0050524f, 0.0386228f, 0.0534509f, 0.0960702f, 0.1965470f, -0.1012313f, 0.1002018f, 0.0254991f, 0.0734644f, 0.0646766f, 0.0434287f, -0.0820789f, -0.0011253f, 0.0720236f, -0.1868205f, -0.2185840f, -0.0480727f, -0.1452125f, -0.2297407f, -0.4117681f, -0.4743288f, 0.2091974f, 0.0207096f, 0.0069009f, -0.0236654f, 0.0368003f, -0.0707379f, -0.0656066f, -0.0579925f, -0.0766592f, -0.1723852f, -0.1305505f, 0.1184320f, -0.0605068f, -0.1837740f, -0.2033874f, -0.0072535f, 0.0797385f, 0.1292684f, -0.0727641f, -0.0469170f, -0.0914912f, 0.0843434f, 0.0627878f, 0.0302594f, 0.1074801f, 0.0169405f, 0.0349409f, -0.0602099f, -0.0110763f, 0.0317329f, 0.1077656f, 0.2286064f, 0.2686486f, -0.1449380f, -0.1803628f, -0.0063410f, 0.0704879f, 0.1009219f, -0.0199235f, -0.0570037f, -0.1082087f, -0.0612843f, -0.0364932f, 0.0595601f, 0.0996856f, 0.1425935f, 0.1077752f, 0.0096038f, 0.0008311f, -0.4005511f, 0.0214863f, -0.1610140f, -0.1241206f, -0.0349990f, -0.0532962f, -0.0920650f, -0.0246669f, -0.1284756f, 0.0436997f, 0.0017532f, 0.1321410f, 0.0723625f, 0.1331255f, -0.0337231f, -0.1631218f, -0.1378291f, -0.3880979f, 0.2525698f, 0.1238939f, -0.1082028f, 0.1158327f, 0.0341240f, -0.1641778f, -0.0809789f, -0.0275629f, 0.1195308f, 0.0560177f, 0.1086753f, -0.0427967f, -0.0350020f, -0.1251691f, 0.0828566f, -0.0789844f, -0.0526253f, -0.1799896f, -0.3224456f, 0.0352932f, 0.1680152f, 0.1273568f, -0.0488962f, 0.0205840f, 0.0385128f, 0.1482014f, 0.1546611f, 0.0881271f, -0.1662361f, -0.1309900f, -0.2162503f, -0.0449768f, -0.0568821f, -0.1979063f, 0.0955477f, 0.0795052f, 0.0755392f, -0.0406118f, -0.2872378f, 0.1719019f, 0.1381977f, 0.0623610f, -0.2963660f, -0.1415070f, -0.0951503f, 0.0725532f, -0.0933261f, -0.1083203f, 0.0438052f, 0.1002040f, 0.0900965f, 0.0371252f, 0.0220180f, -0.2678384f, -0.2142582f, -0.2114256f, -0.1406926f, 0.0330754f, -0.0424156f, 0.0423484f, 0.1145371f, 0.0839140f, 0.0966740f, 0.0269896f, 0.1662385f, 0.0458393f, 0.0375186f, -0.0961267f, -0.4387630f, -0.0747042f, 0.0476889f, 0.1389167f, 0.0119791f, 0.0985357f, 0.0034936f, 0.0237897f, 0.1134870f, 0.0339805f, 0.0037589f, -0.0113526f, -0.0628166f, 0.2452430f, 0.1095431f, 0.0604233f, -0.1649278f, 0.0505953f, 0.0364738f, -0.0579642f, -0.0919383f, -0.0254815f, -0.1176815f, -0.1569035f, -0.1329590f, -0.2143692f, 0.0334602f, 0.0605916f, 0.1789558f, 0.1008330f, 0.0145836f, -0.0053663f, 0.0010585f, 0.1288266f, 0.0957748f, -0.0245581f, 0.0629856f, -0.0155968f, -0.0865892f, -0.1479859f, -0.1212502f, 0.3053329f, 0.2179181f, 0.2435357f, 0.0601300f, -0.0722380f, -0.2500244f, 0.2353275f, 0.3004681f, 0.3195529f, 0.1118236f, -0.1856075f, -0.0806499f, 0.0364427f, 0.0997511f, 0.0367784f, 0.0262213f, 0.0586602f, -0.0717567f, -0.0609614f, 0.0220921f, 0.0227552f, -0.0478953f, 0.0941344f, -0.0745241f, -0.0877177f, -0.0780172f, -0.3026079f, 0.1203957f, 0.1524209f, 0.1209406f, 0.1304914f, -0.0003453f, -0.0619485f, -0.1170760f, -0.0153354f, 0.0727734f, 0.1095136f, -0.1137422f, 0.1087274f, -0.1727588f, 0.0037861f, -0.0416030f, 0.0167224f, 0.0581498f, 0.1297615f, 0.0540910f, 0.0995652f, 0.0861009f, 0.1476685f, 0.0904139f, 0.1452392f, 0.0722364f, -0.0472897f, -0.1693343f, -0.1784375f, 0.1005917f, 0.1550535f, 0.1251481f, 0.0686763f, 0.0263980f, 0.0171262f, -0.0795982f, 0.0121837f, 0.0243854f, 0.0386072f, 0.0163035f, -0.1690041f, -0.1045696f, -0.0785466f, -0.0404459f, -0.0184893f, -0.4894964f, 0.0816524f, 0.0006024f, -0.2138151f, 0.0216405f, 0.0275435f, -0.0802655f, 0.0306395f, -0.0482544f, 0.0279305f, -0.1050591f, -0.0411106f, -0.1200927f, -0.1412336f, -0.0037802f, 0.0968065f, 0.0473715f, -0.0829556f, -0.2605157f, -0.1553933f, 0.1924115f, 0.0215328f, -0.0464455f, 0.0698660f, -0.1071648f, -0.1172667f, -0.1405587f, 0.1443570f, 0.0898388f, 0.0052666f, 0.4164654f, 0.1310136f, -0.0896123f, -0.0926233f, -0.1203906f, -0.2548905f, -0.1486816f, 0.0733436f, 0.1800164f, -0.1577356f, 0.0896078f, -0.0858194f, -0.0593811f, -0.1148484f, -0.0178024f, 0.1329051f, -0.0044534f, 0.0199696f, 0.2191375f, 0.0750605f, 0.0733219f, 0.1753845f, 0.2679170f, 0.1495526f, -0.2766000f, 0.1483684f, -0.0768394f, 0.0191777f, -0.0132639f, 0.0923239f, 0.1612029f, 0.2417806f, 0.0016300f, -0.1098560f, -0.2219119f, -0.0193842f, -0.0709604f, -0.0719584f, 0.1371460f, -0.1431809f, -0.3251409f, -0.2664602f, -0.1744415f, -0.0205357f, -0.0215744f, 0.2254864f, 0.0693299f, 0.1147508f, 0.0467788f, 0.0484567f, -0.0404042f, -0.1157900f, -0.0219950f, -0.1057203f, -0.0431457f, -0.5193745f, -0.1564099f, 0.0327780f, 0.2973610f, 0.2344177f, -0.0256587f, 0.0106071f, -0.0084114f, 0.0545803f, -0.0021719f, -0.0325760f, 0.0775853f, 0.0226220f, -0.0393710f, 0.1252013f, -0.2709584f, 0.1093286f, 0.1857098f, 0.1018062f, 0.1108153f, -0.0220278f, 0.0115257f, 0.0843358f, -0.0905567f, -0.0147622f, -0.0221277f, 0.0358714f, -0.0584131f, -0.0348604f, -0.1076556f, 0.1111672f, 0.4893809f, 0.0956442f, 0.1440182f, -0.1017020f, 0.0702709f, -0.1166336f, 0.0496360f, -0.0916572f, -0.0865844f, 0.0386514f, -0.0736619f, 0.2084265f, 0.0032226f, 0.0812472f, 0.0227038f, -0.0178617f, -0.0546549f, -0.1674692f, -0.0450105f, 0.0267295f, 0.1127003f, 0.0847281f, 0.1127734f, 0.1337265f, 0.1272193f, 0.1023061f, 0.1222337f, 0.1386841f, 0.0835381f, 0.0143360f, -0.0473976f, -0.1810778f, -0.1474979f, 0.2083111f, 0.1948455f, 0.0953943f, 0.1225550f, -0.0057905f, -0.0334253f, -0.0827954f, -0.0038318f, 0.0196097f, -0.0439918f, 0.0324588f, -0.1483381f, -0.0671629f, -0.1032755f, 0.0705566f, 0.0593743f, 0.0527090f, 0.1687293f, 0.3247362f, 0.3744410f, 0.0680311f, -0.1597385f, -0.1802221f, -0.0019927f, -0.1053744f, -0.0588331f, 0.1090396f, -0.0148495f, 0.0462541f, 0.1494649f, -0.0076669f, 0.0912723f, -0.0917310f, 0.0398593f, -0.0556413f, -0.0183792f, -0.2940903f, -0.1465857f, -0.0275191f, 0.2415801f, 0.1074240f, 0.0896086f, -0.0496305f, -0.0818769f, -0.0309738f, -0.0146116f, -0.0698741f, -0.0663429f, 0.0411995f, 0.0654612f, 0.1291583f, -0.1070349f, -0.1155299f, -0.2104683f, 0.1280842f, 0.0807578f, -0.0547578f, -0.0236764f, -0.0380253f, -0.0922271f, 0.0985435f, -0.0486344f, -0.0109323f, 0.0805060f, 0.3056745f, 0.1884942f, -0.0085415f, -0.1936289f, -0.1814817f, 0.0512814f, 0.0034453f, 0.0675125f, -0.0519205f, -0.1940934f, 0.0406645f, 0.1332572f, 0.1684993f, 0.0852656f, 0.0249570f, 0.1404722f, 0.1299249f, 0.0922449f, -0.3959771f, -0.2846069f, -0.7115929f, -0.3253338f, -0.1273902f, 0.0294622f, -0.1698150f, 0.0487423f, -0.0206363f, 0.0459862f, -0.0282254f, -0.0151836f, -0.1247243f, 0.0921397f, -0.1236493f, 0.0119492f, 0.1347536f, -0.0576366f, 0.2344613f, 0.1339940f, 0.0877763f, 0.0923841f, -0.0246847f, 0.0227087f, 0.0142114f, 0.0423203f, 0.0028717f, 0.0259608f, -0.0660456f, -0.0074144f, -0.0705980f, -0.0307936f, -0.0204606f, 0.0179664f, 0.3039394f, 0.1471536f, 0.1045238f, 0.1016682f, 0.0631557f, 0.0172243f, 0.0679437f, 0.0320396f, -0.0983309f, -0.1471904f, -0.0285846f, -0.0030937f, -0.0539060f, -0.2216436f, -0.0671829f, -0.1117978f, -0.2216038f, -0.0844655f, -0.0290976f, 0.1653996f, 0.0514449f, -0.1083392f, -0.1118924f, -0.0760056f, -0.0846199f, -0.1233518f, -0.0909253f, 0.0066061f, 0.1045840f, 0.0142657f, -0.0430849f, -0.1428306f, 0.3700860f, 0.1997028f, 0.0197776f, 0.0477921f, -0.1731665f, 0.0064613f, -0.0928555f, -0.0903211f, -0.0134665f, -0.0222743f, 0.0301413f, -0.1426589f, -0.1392046f, -0.0290728f, -0.0784226f, 0.1408611f, 0.1618850f, -0.0796022f, -0.3431565f, -0.1887218f, -0.0330266f, -0.0930286f, -0.0264826f, 0.0270744f, 0.0034413f, -0.0219159f, -0.0185226f, 0.0171046f, 0.0662200f, 0.0638114f, 0.0036200f, 0.0531394f, -0.1112735f, 0.4003425f, -0.3164787f, -0.3724601f, -0.2869703f, -0.1448988f, -0.2048406f, 0.0801273f, -0.0877925f, 0.0942133f, -0.0575205f, 0.1770460f, -0.0299752f, 0.0776867f, 0.1316378f, 0.0696579f, 0.0145079f, 0.1471376f, 0.0451426f, 0.0771478f, 0.0244838f, 0.0616513f, 0.1494571f, 0.0189668f, 0.0568220f, 0.0842947f, 0.0380350f, -0.0237562f, 0.0115589f, 0.0323004f, 0.0192532f, 0.0425885f, -0.0024702f, 0.0591480f, 0.1021597f, -0.0173472f, -0.2054536f, -0.0884481f, 0.0591265f, -0.0813991f, 0.1170733f, 0.0998803f, -0.0674733f, 0.0823302f, -0.0144127f, 0.0110186f, 0.0009097f, -0.0456929f, -0.0964868f, -0.1623750f, -0.1927055f, -0.3209388f, 0.0260833f, 0.0960387f, 0.1303953f, 0.0828596f, -0.0727856f, -0.0828113f, 0.1736616f, 0.1004857f, 0.0895147f, -0.0472635f, -0.0885807f, -0.1401740f, -0.2553044f, 0.1158646f, -0.0609472f, -0.2517572f, -0.0375616f, 0.0401167f, -0.1357530f, -0.3827249f, -0.1553705f, -0.0397723f, 0.0666739f, -0.0287214f, -0.0238908f, -0.0740259f, 0.0093851f, -0.0899639f, 0.1262111f, 0.1476668f, 0.1559822f, 0.2325482f, -0.1324729f, -0.1611463f, -0.3219704f, 0.1604906f, 0.0288236f, 0.0290345f, 0.0342185f, 0.0967145f, -0.0141785f, -0.0842880f, 0.0273728f, 0.1916063f, 0.1000993f, 0.0951143f, 0.0746096f, 0.0872786f, -0.1142663f, 0.0772813f, -0.0352215f, -0.2149477f, -0.1933839f, 0.1131141f, 0.0802098f, -0.0574261f, -0.0553825f, 0.1232748f, 0.0877290f, -0.0833772f, 0.1282788f, -0.0043606f, -0.0606196f, -0.1271871f, -0.1019400f, 0.0067613f, 0.0601729f, -0.3812696f, 0.2399343f, 0.0597707f, 0.0019309f, -0.0166319f, 0.0295886f, 0.0203298f, -0.0046167f, -0.0228198f, 0.0899937f, -0.0250594f, -0.2457176f, -0.4594404f, 0.0587011f, -0.0442615f, 0.0035395f, 0.0446672f, -0.2788650f, -0.1350360f, -0.2414289f, 0.0549020f, 0.1605119f, 0.1608492f, 0.1289406f, 0.0725676f, -0.0447596f, 0.0103755f, 0.0313592f, 0.1637217f, 0.1684997f, 0.0864828f, -0.0442547f, -0.1891787f, 0.0426843f, -0.1019221f, 0.2044175f, 0.2516821f, 0.0983837f, 0.0533173f, -0.0657952f, 0.1628698f, -0.0087939f, -0.0140234f, -0.0917892f, -0.1127478f, -0.0881773f, -0.0545387f, -0.0904361f, -0.2802160f, -0.1066905f, -0.1976017f, 0.0601907f, 0.0952186f, -0.0348775f, 0.0360088f, -0.0067176f, -0.0641715f, 0.1567462f, 0.1129622f, 0.0781222f, -0.1029520f, 0.1007455f, -0.0674044f, 0.0953879f, 0.6898445f, 0.1791428f, -0.0157798f, 0.1353720f, -0.1239842f, -0.1129111f, 0.0326905f, 0.1296728f, 0.1041106f, 0.0690546f, 0.0488325f, 0.0744643f, -0.0381482f, -0.0425741f, 0.0174435f, 0.0052258f, -0.0356592f, -0.0187530f, 0.1122032f, -0.0525939f, 0.0122518f, 0.0560973f, -0.0351092f, 0.0176307f, 0.0926979f, 0.0396427f, 0.1128154f, 0.1955305f, 0.0312902f, 0.0004554f, -0.1636712f, -0.3675316f, -0.4426741f, 0.1205297f, 0.1415462f, -0.0530260f, -0.1925303f, 0.0065460f, -0.0034165f, 0.0815098f, 0.1436887f, 0.0019695f, -0.0274308f, 0.0062007f, -0.1080305f, -0.1684969f, -0.3206509f, -0.1430373f, -0.0102119f, -0.1339960f, 0.0173849f, 0.0842614f, -0.0562667f, 0.0835796f, -0.1951753f, 0.0036656f, -0.1636253f, -0.0298383f, 0.0050466f, 0.1430674f, 0.1316718f, 0.0200979f, 0.1584226f, 0.1770758f, 0.1450975f, 0.0975580f, 0.0100136f, 0.0424730f, -0.0221120f, -0.2489994f, 0.0467293f, -0.0739029f, 0.0347269f, 0.0248299f, 0.1204989f, -0.0850699f, 0.2082790f, 0.0618617f, 0.0006071f, -0.0408554f, -0.1309248f, 0.0868576f, -0.4929370f, -0.0213083f, 0.1370969f, 0.0232995f, 0.0406348f, -0.0453590f, -0.2396773f, -0.3042657f, -0.1749393f, -0.0902036f, -0.1247222f, 0.0262039f, -0.0503755f, 0.1279598f, 0.0747399f, 0.0909128f, 0.1896802f, 0.0876468f, 0.0307672f, -0.0439749f, -0.1464918f, -0.3003172f, -0.2702250f, 0.0904827f, 0.2876821f, 0.0847643f, -0.0186460f, 0.0252539f, 0.1029186f, 0.0951305f, -0.0225604f, 0.0352780f, 0.0409767f, -0.0050431f, -0.1965871f, -0.5408037f, -0.2696240f, -0.0754411f, 0.0002906f, 0.0198952f, 0.0285845f, -0.0080653f, -0.0466058f, -0.0869369f, -0.0250986f, -0.0746151f, -0.0400979f, -0.0761589f, 0.0861248f, 0.1490641f, -0.1542898f, 0.3150142f, 0.0507368f, 0.0608966f, -0.0529486f, -0.0114642f, -0.0802914f, 0.0042261f, 0.0185915f, 0.0205715f, -0.0034795f, -0.0071849f, -0.0651909f, -0.0682412f, 0.0066367f, 0.0152934f, 0.0440002f, -0.1676994f, 0.1097586f, 0.0722464f, -0.0578324f, -0.1428858f, -0.0517388f, -0.0694909f, 0.1571605f, 0.0405875f, 0.0104445f, -0.1318453f, -0.0710884f, -0.0960626f, 0.0470665f, -0.1888415f, -0.0286948f, -0.1205603f, 0.1589227f, -0.0585101f, -0.1277795f, 0.1999635f, 0.1265042f, 0.0467748f, -0.2111332f, 0.0275059f, -0.4298887f, 0.1282667f, -0.1653632f, 0.2467439f, -0.2250202f, 0.0929824f, -0.0099549f, -0.1331051f, 0.2550783f, 0.2232679f, 0.0823193f, 0.1272040f, -0.0444805f, -0.1323793f, -0.1344757f, -0.1974851f, -0.1806162f, -0.0302930f, -0.0413011f, 0.0307639f, 0.0071545f, 0.1730448f, 0.1582776f, 0.0457650f, 0.0205219f, -0.1608929f, 0.0108632f, -0.0473632f, -0.0741748f, -0.0026550f, -0.1279742f, -0.0261846f, 0.2857449f, 0.0270807f, 0.0238629f, 0.0330029f, -0.0122235f, -0.1044713f, 0.0522353f, 0.0458080f, -0.2133580f, 0.0192943f, -0.1278290f, -0.1120949f, -0.0238668f, -0.1804789f, 0.0138116f, 0.0558604f, 0.0033042f, 0.2184125f, 0.2149939f, 0.0328547f, 0.1510802f, 0.0033289f, 0.0533312f, 0.1364227f, 0.0700312f, -0.3316084f, -0.0843608f, -0.0398013f, -0.1444428f, 0.2612492f, 0.0380158f, 0.1452357f, 0.1227477f, -0.0141807f, 0.0577185f, 0.0083395f, 0.0678126f, -0.0025130f, -0.0231587f, 0.0735223f, 0.1116723f, -0.0314451f, -0.0954557f, 0.0526597f, -0.0024187f, -0.0255851f, -0.0483130f, -0.0390428f, -0.1157782f, -0.1730525f, -0.1454288f, -0.1229835f, 0.0702186f, 0.0540106f, -0.0043530f, 0.1426684f, 0.0780516f, 0.1413186f, 0.0555907f, -0.1376198f, -0.0220852f, -0.1088200f, -0.1243777f, -0.1099391f, -0.0638146f, -0.1535132f, 0.2945242f, 0.2326411f, 0.2083095f, 0.0836412f, -0.0555820f, -0.0298605f, 0.0434686f, -0.0213102f, -0.2927381f, 0.0158665f, -0.0695132f, -0.0854271f, 0.0476430f, -0.1498055f, -0.0035192f, -0.1574437f, -0.0413730f, -0.1573793f, -0.0471752f, -0.0933079f, 0.0202766f, -0.0456360f, 0.0237279f, -0.0511908f, -0.1481534f, -0.0229403f, -0.0946799f, -0.0564110f, -0.0155812f, -0.0795138f, -0.3269782f, 0.2053396f, 0.0648455f, 0.2983069f, -0.0254505f, 0.1705689f, -0.0508669f, -0.0490176f, -0.3445778f, -0.3660947f, -0.1398635f, 0.0069267f, -0.0331326f, -0.0155234f, 0.0156607f, 0.1101443f, -0.0386163f, 0.0476045f, 0.0371187f, 0.0608020f, 0.1052834f, -0.0075938f, -0.0172777f, -0.0675470f, -0.0162739f, -0.0471696f, 0.0293157f, 0.1927613f, -0.1562133f, 0.1514040f, -0.0633247f, -0.0234469f, -0.0292732f, 0.0824601f, -0.0280759f, 0.3002740f, -0.2236142f, -0.1504571f, -0.1102550f, 0.1563390f, 0.0607044f, 0.0417280f, 0.3565826f, -0.0426611f, -0.2873895f, -0.0851740f, -0.4915031f, -0.3531081f, -0.1523465f, -0.0582775f, -0.0855181f, 0.1311126f, -0.0956331f, -0.0274449f, 0.1180718f, 0.0143972f, -0.1313398f, 0.0193860f, -0.1124286f, 0.0788719f, -0.0013981f, -0.0956661f, 0.2386243f, 0.3171070f, 0.1348343f, 0.1258938f, 0.0312280f, 0.0814026f, 0.0218290f, -0.0208133f, 0.0111794f, 0.0348428f, 0.0311717f, 0.0422173f, 0.0043236f, 0.0096089f, 0.1223967f, -0.2202059f, -0.1712116f, -0.3335449f, -0.1818237f, 0.1558103f, 0.0870633f, -0.0760588f, 0.0932571f, 0.0758481f, 0.0480431f, 0.0112646f, 0.0840417f, 0.0939435f, 0.0504699f, 0.1753279f, 0.2062024f, 0.1122795f, -0.0996721f, 0.0844765f, 0.2529542f, 0.1032600f, -0.1314164f, -0.0082559f, 0.0570537f, 0.0528935f, 0.0763953f, -0.0404055f, 0.0213499f, 0.0729949f, 0.0265657f, 0.0727667f, -0.0452752f, 0.0137416f, -0.1931676f, -0.5504726f, -0.1505672f, -0.1450159f, -0.1102269f, -0.1234980f, -0.0487355f, -0.0082577f, -0.0504123f, 0.0615083f, -0.1075485f, 0.0396860f, 0.0457971f, 0.1432647f, -0.0902578f, 0.0468378f, 0.0319457f, 0.5046377f, 0.1920855f, 0.1396080f, 0.0447157f, 0.0975806f, 0.0387090f, 0.0249563f, 0.0170487f, 0.0386773f, -0.0008443f, 0.0466349f, 0.0529744f, 0.1575572f, -0.0007744f, -0.0013218f, 0.0544849f, -0.0193883f, -0.1937575f, 0.0152879f, 0.1520486f, 0.1508034f, -0.0545204f, 0.1024377f, 0.1011053f, 0.0476079f, -0.0236477f, -0.1611264f, -0.1124666f, -0.0964940f, -0.1392403f, -0.1490222f, -0.1879451f, -0.2737719f, 0.4907094f, 0.1727886f, 0.0457371f, 0.1639379f, 0.0371646f, -0.0351766f, -0.0821419f, -0.0434647f, 0.0099800f, 0.0612979f, -0.1025923f, -0.0585096f, -0.0519517f, -0.1188780f, 0.0807444f, 0.0903398f, 0.0317714f, 0.1190339f, -0.0287279f, -0.0529397f, 0.0007464f, 0.0691834f, 0.0081658f, 0.1328149f, 0.1137827f, 0.1576679f, 0.0999137f, 0.0196772f, -0.0167794f, -0.0423325f, -0.0545299f, -0.0653722f, -0.1045548f, -0.1946102f, 0.0797420f, -0.0154226f, 0.0511398f, 0.0898689f, 0.1186136f, 0.0971661f, 0.0310371f, -0.1578544f, -0.0820194f, 0.0330203f, -0.2455541f, -0.0628688f, 0.0644118f, -0.1071001f, 0.0359108f, -0.2238173f, 0.0120639f, -0.0984114f, 0.0223027f, 0.0538375f, 0.0544219f, 0.0474711f, -0.0149260f, 0.0087246f, 0.0157081f, -0.0478298f, 0.0272800f, 0.1077252f, -0.0626019f, -0.0408835f, -0.1035939f, -0.2583633f, -0.2389405f, -0.0954976f, -0.0863910f, -0.0557711f, 0.0427208f, -0.0311388f, 0.0218352f, 0.0332048f, -0.1663614f, 0.1184141f, 0.0102135f, -0.2697929f, -0.2236621f, -0.0872066f, 0.0570896f, -0.0021155f, -0.3911715f, -0.0518971f, 0.1690959f, 0.1212376f, 0.0239838f, 0.0976042f, -0.1049568f, -0.1179253f, 0.1102547f, 0.0351090f, 0.0249717f, -0.1466750f, -0.0216976f, -0.0332077f, 0.0346704f, 0.1783620f, 0.0625971f, 0.0566570f, 0.2054097f, -0.0318167f, 0.0590775f, -0.1598381f, -0.1246376f, 0.1691176f, 0.0491557f, -0.1768888f, -0.0712349f, -0.0386472f, 0.1325275f, 0.2942123f, -0.1092838f, -0.2658107f, 0.0572622f, -0.3698732f, 0.2259159f, 0.2978633f, 0.2049307f, 0.0991781f, -0.0844856f, -0.1347064f, -0.1218076f, -0.1004372f, -0.1193820f, 0.0128415f, -0.1002169f, -0.0653177f, 0.0470085f, 0.0984726f, 0.1500344f, 0.0266889f, 0.0416708f, 0.0350556f, -0.0869674f, 0.0293695f, -0.2454685f, -0.2537407f, -0.1220117f, -0.0117685f, 0.1020882f, 0.1826344f, 0.1018243f, 0.0499507f, -0.0918400f, -0.1257848f, -0.0084158f, -0.1246497f, -0.1132741f, 0.2417813f, 0.2774029f, 0.2609743f, 0.0956521f, -0.1063517f, -0.0714831f, -0.0074285f, -0.0278624f, -0.0269906f, 0.0210282f, 0.0479091f, 0.1106919f, 0.0311856f, 0.0710794f, 0.0364988f, -0.0478731f, 0.0009905f, -0.1551191f, -0.2756502f, -0.2492184f, -0.1601132f, 0.1657404f, 0.1518196f, 0.0106042f, -0.0449302f, 0.0737226f, -0.0000340f, 0.0188635f, 0.0244624f, -0.0389662f, 0.0300427f, -0.0586000f, 0.1226659f, 0.0559958f, 0.1771933f, 0.1285455f, 0.0724717f, 0.0099711f, -0.0948944f, 0.0346682f, -0.0019698f, -0.0915888f, 0.0036935f, 0.0362785f, -0.0652442f, 0.0797504f, -0.0368356f, -0.1755392f, -0.1208444f, 0.1065184f, 0.1195349f, 0.0318686f, 0.1169326f, 0.0298996f, -0.0397769f, 0.0209101f, -0.0848492f, 0.0695677f, 0.1018163f, -0.0180120f, -0.0531381f, -0.1729128f, -0.1251052f, -0.0451560f, 0.0026443f, -0.6303857f, -0.1607936f, 0.1603267f, 0.0512634f, 0.1433913f, 0.0769616f, -0.0074361f, 0.1549033f, -0.0664227f, -0.1779662f, -0.1253317f, 0.0576156f, -0.0020799f, -0.1479901f, -0.1781739f, -0.4326583f, -0.3290833f, 0.0324670f, 0.3034946f, -0.0211532f, 0.0595084f, -0.0396265f, -0.0320089f, -0.0490003f, -0.1143188f, 0.0253690f, 0.0594825f, -0.0603027f, 0.0157365f, -0.1742677f, -0.1629459f, -0.1142591f, -0.1689620f, 0.2406416f, -0.0970689f, -0.1740856f, -0.0944053f, 0.0319833f, 0.1245943f, -0.0746570f, 0.0472850f, 0.0531237f, -0.0053379f, -0.0704926f, -0.1223214f, 0.0376992f, 0.1264953f, 0.0456364f, 0.1484588f, 0.2714441f, 0.2373331f, 0.1963066f, 0.2673230f, -0.0980997f, 0.0294861f, -0.2326059f, 0.2269925f, -0.0239882f, -0.0727026f, -0.3518354f, 0.1335591f, 0.1294264f, 0.1574032f, 0.0332133f, 0.0566173f, -0.0524936f, 0.0441074f, 0.0397957f, -0.0069295f, -0.0539089f, 0.0074433f, 0.0342825f, 0.0099917f, 0.1074388f, 0.1067464f, 0.0228099f, 0.1805208f, -0.0887339f, 0.0688460f, -0.0642813f, -0.0344514f, 0.1934809f, 0.1868553f, 0.0152803f, 0.1017055f, 0.0317158f, -0.0124951f, -0.0630823f, 0.0049703f, 0.0140722f, 0.2480892f, -0.0838253f, -0.1132050f, -0.4020684f, 0.1291214f, 0.2808835f, 0.3206321f, 0.2787302f, 0.0339100f, -0.1758074f, 0.1491922f, -0.0174057f, 0.2028769f, 0.0211559f, 0.1235748f, 0.0907193f, 0.0271992f, -0.0999291f, -0.1157366f, -0.0140369f, 0.0993800f, -0.1255640f, 0.0058219f, -0.2075847f, 0.0126439f, 0.1069692f, 0.0187172f, 0.2458681f, -0.0810575f, 0.0378755f, -0.0033345f, -0.1482596f, -0.0273367f, 0.0608430f, 0.1290950f, 0.0872204f, -0.0479803f, -0.1983981f, -0.0823652f, 0.2449303f, 0.2940019f, -0.1528772f, -0.2886873f, -0.0423721f, -0.0649714f, -0.2343458f, -0.2538514f, -0.1534560f, 0.0069718f, -0.1518838f, -0.1167586f, 0.0605664f, 0.1036785f, 0.0436962f, -0.0645609f, -0.0687939f, -0.0475570f, 0.0574930f, 0.0026215f, -0.0452483f, -0.2708786f, 0.0238540f, -0.3745933f, 0.1727535f, 0.0935520f, 0.0306616f, -0.1597124f, 0.0701939f, -0.0483239f, 0.0416009f, -0.0472763f, -0.0565639f, -0.1517163f, -0.2001536f, -0.0821578f, 0.1391705f, -0.1238592f, -0.0142193f, 0.2194171f, -0.0584643f, -0.1462464f, 0.0040225f, 0.0020900f, 0.1402973f, 0.0312704f, 0.0724109f, -0.0275820f, -0.1354620f, -0.1100535f, 0.0098477f, 0.2060467f, 0.0448312f, 0.1004694f, -0.0078025f, -0.2997159f, 0.0203487f, 0.1424210f, 0.3003614f, -0.1177112f, -0.1788286f, -0.1729721f, -0.2706459f, -0.0770735f, 0.2493929f, 0.1725023f, 0.1118418f, -0.0026098f, -0.0153837f, -0.0021307f, 0.1206227f, 0.0097800f, 0.0543193f, -0.0395248f, -0.1218323f, -0.0227321f, -0.1179694f, -0.0772314f, 0.0414223f, -0.0601882f, -0.1439697f, -0.2436118f, -0.2056962f, -0.0185927f, -0.0434122f, -0.0600091f, 0.0652397f, 0.0918292f, 0.0025606f, -0.1773966f, 0.0378813f, 0.0326323f, -0.2473618f, 0.1427134f, 0.0265977f, -0.2120984f, -0.2581055f, -0.0616036f, 0.1145732f, 0.1864320f, -0.1049658f, -0.1532624f, 0.4043986f, 0.0651050f, -0.0324288f, -0.0854623f, -0.0767961f, 0.0870909f, 0.0182128f, -0.1047280f, -0.0641434f, 0.0392093f, 0.0871452f, 0.0898601f, 0.1129704f, 0.1020390f, -0.1166653f, -0.1449403f, -0.1921194f, -0.1188408f, -0.0855116f, -0.1086481f, -0.1216102f, -0.1424708f, -0.2177571f, 0.2227827f, 0.2359942f, 0.2790673f, 0.1239756f, 0.1367728f, -0.0492410f, -0.1239853f, -0.1700249f, -0.0224615f, -0.0633530f, -0.3604877f, -0.0420280f, -0.3573327f, -0.4080381f, -0.0760140f, 0.0188847f, 0.0621530f, -0.0319847f, 0.0367479f, 0.0369620f, 0.1325635f, 0.0785180f, 0.0456060f, 0.1198834f, -0.0988872f, -0.1359634f, -0.0458989f, -0.0331848f, -0.1803314f, 0.4218670f, 0.1676137f, 0.0675659f, 0.0435848f, 0.0092476f, 0.0902409f, 0.0290747f, 0.0087459f, 0.0386776f, 0.1100025f, 0.0445046f, 0.0135157f, 0.0420280f, 0.0808268f, 0.0641278f, 0.0461281f, -0.0337924f, 0.0310343f, -0.0446414f, 0.0692345f, -0.2231242f, -0.1022449f, 0.0110643f, -0.0636019f, -0.1085171f, -0.1734423f, -0.1765455f, -0.1666776f, -0.1639550f, 0.0390447f, -0.0797419f, -0.0140545f, 0.0431931f, 0.1365630f, -0.0591123f, -0.3354453f, 0.1743202f, 0.0088697f, 0.0990868f, -0.0051241f, -0.1659195f, -0.1116249f, 0.0746297f, 0.1700015f, 0.1841572f, 0.0006990f, -0.1265973f, 0.1842581f, -0.0567050f, 0.3198736f, 0.3378437f, -0.0673319f, 0.0697866f, -0.0869859f, 0.0244561f, 0.0634469f, 0.0322578f, -0.0048798f, 0.0100849f, 0.0966683f, 0.0067826f, 0.0420210f, -0.0062901f, 0.1921658f, 0.0426273f, 0.0275875f, -0.3382617f, -0.1275538f, -0.1949722f, 0.1038012f, 0.0492671f, -0.0508807f, -0.1382607f, 0.0419497f, 0.1400753f, 0.0796127f, 0.1159212f, 0.1044342f, 0.1393364f, 0.0999405f, -0.0531175f};
static const float b0[] = {0.0000284f, -0.0000025f, 0.0000084f, -0.0000326f, -0.0000011f, -0.0000272f, 0.0000148f, -0.0000088f, 0.0000081f, 0.0000154f, 0.0000083f, 0.0000074f, 0.0000133f, -0.0000263f, 0.0000097f, -0.0000027f, 0.0000015f, -0.0000142f, -0.0000057f, -0.0000046f, 0.0000011f, -0.0000049f, -0.0000050f, -0.0000017f, 0.0000257f, 0.0000125f, -0.0000230f, -0.0000203f, 0.0000110f, 0.0000274f, -0.0000148f, -0.0000031f, -0.0000039f, -0.0000310f, 0.0000016f, -0.0000118f, 0.0000125f, -0.0000065f, 0.0000150f, -0.0000016f, -0.0000201f, -0.0000161f, 0.0000001f, -0.0000174f, -0.0000081f, 0.0000178f, 0.0000091f, 0.0000083f, -0.0000001f, 0.0000044f, 0.0000046f, 0.0000109f, -0.0000016f, -0.0000128f, 0.0000279f, -0.0000142f, 0.0000130f, 0.0000179f, 0.0000130f, -0.0000059f, -0.0000163f, -0.0000167f, -0.0000231f, -0.0000087f};
static const float bn1_g[] = {0.5641158f, 0.7116076f, 0.4752524f, 0.6407297f, 0.3010384f, 0.7007285f, 0.6290776f, 0.6399230f, 0.6054566f, 0.7424216f, 0.4150611f, 0.4126383f, 0.6215382f, 0.4914829f, 0.6366564f, 0.5055075f, 0.4297654f, 0.4670953f, 0.4648770f, 0.6927662f, 0.4548156f, 0.4645579f, 0.5518940f, 0.4319182f, 0.6159956f, 0.4978103f, 0.4694878f, 0.5985582f, 0.4251399f, 0.5384748f, 0.4050417f, 0.4219175f, 0.6353335f, 0.6229657f, 0.4906868f, 0.5716599f, 0.6782486f, 0.6692145f, 0.3896486f, 0.5209352f, 0.5535842f, 0.7367479f, 0.5426480f, 0.7391707f, 0.5410373f, 0.6063617f, 0.6703908f, 0.3593980f, 0.4107200f, 0.4126744f, 0.5126652f, 0.4968715f, 0.5711572f, 0.6524982f, 0.4282896f, 0.4777704f, 0.5528522f, 0.6781008f, 0.3909008f, 0.7650952f, 0.6106944f, 0.4594802f, 0.8004425f, 0.5197120f};
static const float bn1_b[] = {-0.4196174f, -0.3319211f, -0.3446191f, -0.3814757f, 0.0238877f, -0.6910846f, -0.2400511f, -0.2962054f, -0.1878026f, -0.4130539f, -0.4192738f, -0.1869723f, -0.3022016f, -0.1790173f, -0.2691984f, -0.6121855f, -0.1904206f, -0.1980746f, -0.1007773f, -0.4418075f, -0.1708320f, -0.2109457f, -0.4150484f, -0.1787055f, -0.5599570f, -0.7393893f, -0.2890569f, -0.3273615f, -0.2078696f, -0.1686447f, -0.1013185f, -0.2800713f, -0.3001276f, -0.2910450f, -0.1560901f, -0.2085884f, -0.5322919f, -0.3360460f, -0.0808002f, -0.5068213f, -0.1870643f, -0.3745041f, -0.2991499f, -0.5871227f, -0.2631371f, -0.5283331f, -0.3547331f, -0.2396713f, -0.1496613f, -0.1143944f, -0.3286813f, -0.5238227f, -0.2873163f, -0.3121164f, -0.0170379f, -0.1353679f, -0.2469198f, -0.4306246f, -0.0852996f, -0.4318028f, -0.3991518f, -0.0768892f, -0.4723809f, -0.4774950f};
static const float bn1_rm[] = {0.0004012f, 0.0038500f, 0.0060255f, 0.0120094f, -0.0041110f, 0.0028064f, 0.0088299f, 0.0088650f, -0.0066607f, 0.0010819f, -0.0069978f, 0.0117573f, -0.0040593f, 0.0145919f, -0.0044678f, 0.0016549f, -0.0035019f, -0.0097120f, 0.0041004f, 0.0107071f, -0.0050668f, -0.0072042f, 0.0073010f, -0.0030160f, 0.0047004f, -0.0043104f, 0.0008843f, 0.0010621f, 0.0030840f, 0.0003404f, 0.0034362f, 0.0034937f, -0.0044755f, 0.0071483f, 0.0046300f, 0.0083560f, 0.0056197f, -0.0005217f, 0.0034094f, 0.0032811f, 0.0063746f, 0.0088832f, -0.0021975f, 0.0015244f, -0.0021436f, -0.0006825f, -0.0046215f, -0.0038720f, 0.0029859f, 0.0010354f, 0.0059603f, 0.0077327f, 0.0009483f, 0.0055948f, -0.0078059f, -0.0071551f, -0.0044726f, 0.0084067f, -0.0030726f, 0.0027997f, 0.0071228f, -0.0046958f, 0.0034282f, 0.0006811f};
static const float bn1_rv[] = {0.6444125f, 0.2561146f, 0.4935490f, 0.9210520f, 0.4596004f, 2.1038654f, 1.0261939f, 0.4594276f, 0.6796431f, 2.2974279f, 0.2990842f, 0.4855767f, 0.5211400f, 0.5385150f, 1.0854251f, 0.5302378f, 0.2331236f, 0.9704497f, 0.6821301f, 0.9996360f, 0.5976912f, 1.0535163f, 0.4859933f, 0.2709118f, 1.8041929f, 0.5725989f, 0.3577749f, 0.8356508f, 0.5063769f, 0.6871850f, 0.4802627f, 0.8436197f, 1.0187676f, 0.4014668f, 0.3229346f, 1.1397034f, 1.2420698f, 1.1387438f, 0.4935234f, 0.8933405f, 0.7179142f, 1.4029065f, 0.5275452f, 0.8969088f, 0.5346928f, 1.4202027f, 0.8384654f, 0.4321964f, 0.4668762f, 0.4056601f, 0.4280335f, 0.5455194f, 0.3347710f, 0.8866712f, 0.6092781f, 0.4785321f, 0.8187199f, 0.9404616f, 0.4870093f, 1.6700454f, 0.8925869f, 0.3061874f, 2.2800395f, 0.4270147f};
static const float W4[] = {0.0522277f, 0.0276420f, 0.0035679f, -0.2006547f, -0.1684775f, 0.0427764f, 0.0921123f, 0.0181982f, -0.0660526f, -0.1899794f, 0.0386164f, 0.0406433f, -0.0927802f, 0.0485499f, -0.0706502f, 0.0165529f, 0.0480651f, -0.0617260f, -0.1255192f, -0.3157337f, -0.0820976f, 0.0368180f, 0.0310559f, 0.0366656f, 0.0977609f, -0.0786077f, -0.0121874f, -0.0603114f, 0.0470634f, 0.0239768f, -0.1173817f, -0.1372604f, -0.0312781f, 0.0250846f, -0.0013068f, 0.0590908f, 0.1516559f, -0.1474883f, 0.0461171f, -0.1176131f, 0.0537022f, -0.1230815f, -0.0548503f, -0.0137736f, -0.1364000f, 0.0058061f, -0.2108351f, 0.0172403f, 0.0024340f, -0.0833278f, 0.0232917f, 0.0183466f, 0.0186223f, -0.0782069f, -0.1837469f, -0.1463295f, -0.0452148f, -0.2595213f, -0.1517410f, 0.1452360f, -0.0879058f, -0.2438999f, 0.2025402f, -0.1628325f, 0.0486304f, 0.1816328f, -0.0190085f, 0.1080229f, -0.0022825f, 0.0102767f, -0.0816423f, 0.1446040f, -0.0019818f, 0.2255837f, 0.2035700f, 0.0895839f, 0.0001400f, -0.1138605f, -0.2194290f, -0.0804115f, 0.0510540f, -0.0464649f, -0.1281525f, 0.0636747f, 0.1011747f, 0.0013295f, 0.0204663f, 0.0306093f, -0.0029432f, -0.1621713f, -0.0438826f, -0.2440744f, 0.0834256f, -0.0504511f, -0.0018880f, -0.0187599f, 0.0212383f, -0.0248910f, -0.0122798f, -0.1018085f, 0.2702568f, 0.0185243f, -0.0453346f, 0.1148561f, -0.1258447f, -0.1956523f, 0.0396816f, 0.0180812f, -0.0383688f, -0.1484564f, 0.0691824f, 0.1235624f, 0.0825105f, 0.0268317f, -0.0824912f, -0.0484912f, 0.0152864f, 0.0739101f, 0.0037891f, -0.0036705f, -0.0176523f, -0.0907130f, 0.0265623f, 0.0533083f, -0.0830215f, 0.0663368f, 0.1537127f, 0.0981785f, -0.1844760f, -0.0969108f, 0.1028773f, -0.1226310f, 0.0627309f, -0.1386675f, 0.0919569f, -0.1226506f, 0.0286964f, 0.0252509f, -0.0715853f, 0.0788517f, -0.0757072f, -0.0181290f, 0.0310962f, -0.1767650f, -0.1182412f, 0.0213039f, 0.0051808f, -0.1924292f, 0.0363280f, -0.0969084f, -0.1471255f, -0.1630031f, -0.2040782f, -0.1182407f, -0.0569986f, -0.0657896f, 0.0476364f, -0.0181776f, -0.1032377f, 0.0066347f, 0.0550829f, -0.0720869f, -0.0857999f, 0.0814401f, -0.2443034f, -0.1077033f, -0.1368396f, -0.1140223f, 0.0538378f, -0.0279037f, 0.0135712f, -0.2301946f, -0.0789158f, 0.3511817f, 0.0346223f, -0.1542509f, 0.0866005f, -0.0033921f, -0.2496429f, -0.0647283f, -0.1600629f, -0.1403662f, 0.0033730f, -0.0014897f, -0.0697689f, -0.1499054f, 0.0100414f, 0.0475318f, 0.2483595f, -0.1599289f, 0.0913587f, 0.0391205f, 0.1181111f, 0.0611828f, -0.0757973f, -0.1244347f, -0.1717401f, -0.0399762f, 0.0090773f, 0.0593080f, -0.1131457f, -0.1878793f, 0.1468282f, 0.0585897f, -0.1174674f, 0.0228386f, 0.0534868f, 0.0090939f, 0.0329589f, 0.0127071f, -0.1133592f, -0.2542804f, -0.1317570f, 0.0272380f, 0.0300408f, -0.0840077f, -0.0683870f, -0.0666981f, 0.0210428f, -0.0783094f, 0.0699138f, -0.0534524f, -0.0678148f, -0.1535616f, -0.1320432f, 0.0357989f, -0.1260012f, -0.0139937f, 0.1619583f, -0.0465454f, 0.0176398f, -0.1487048f, -0.1271849f, -0.0203983f, -0.0860522f, 0.1459031f, -0.0933177f, -0.1200056f, -0.1751037f, 0.0091462f, 0.0388015f, -0.0863597f, 0.0302636f, 0.0198488f, -0.1006997f, -0.2233793f, -0.1535598f, -0.1785918f, -0.1430471f, -0.0477902f, -0.1593937f, 0.2311860f, -0.1603573f, -0.1050953f, 0.1889541f, -0.0531122f, -0.1931550f, -0.2090843f, 0.0735876f, -0.0675330f, 0.0275153f, 0.0500621f, -0.2184648f, -0.2287881f, -0.0075399f, 0.0511021f, -0.1227090f, 0.1504344f, -0.0610942f, -0.1632917f, -0.1623341f, 0.1237263f, 0.0235360f, -0.1685567f, -0.0108836f, -0.0254248f, 0.0651075f, 0.0060518f, 0.0114335f, -0.2406490f, 0.0997182f, -0.0368922f, -0.0899307f, -0.0151696f, 0.0155559f, -0.2741627f, 0.0433875f, 0.0779026f, -0.0037200f, -0.1937631f, 0.0454376f, -0.2264967f, -0.0433398f, -0.0508248f, 0.0242389f, 0.0485348f, -0.2356745f, -0.1718464f, -0.0797854f, -0.2347085f, 0.0561423f, -0.2142998f, -0.1602489f, 0.0460760f, 0.0951547f, 0.0099862f, -0.1036581f, 0.0932164f, 0.1668360f, -0.0948686f, -0.0166473f, 0.0296568f, -0.0369107f, -0.1173004f, 0.0125766f, -0.0924083f, -0.0516863f, 0.0095047f, -0.0555834f, -0.0427128f, 0.1734415f, -0.0029864f, -0.0297184f, -0.2154925f, -0.0827520f, -0.0345948f, -0.0691414f, 0.0841422f, -0.1044992f, -0.1819068f, -0.0127692f, -0.0179491f, -0.0559925f, 0.0471549f, -0.0597533f, -0.1203714f, 0.0041862f, 0.0352207f, -0.0875177f, -0.3696219f, -0.0800856f, 0.0571862f, -0.0680162f, -0.0138153f, -0.0048379f, 0.0025050f, 0.0380026f, 0.0519417f, -0.0057774f, -0.0065953f, -0.1580492f, -0.1189681f, -0.1238822f, -0.1691650f, -0.0726329f, -0.0402784f, -0.0045261f, -0.1612484f, 0.0292734f, -0.1107953f, -0.0880500f, -0.1558824f, -0.0638025f, 0.1419883f, -0.0898478f, -0.1120205f, -0.1603563f, -0.0246612f, 0.0205441f, -0.0625704f, 0.0398375f, -0.0565011f, 0.0118390f, -0.0679523f, -0.0278898f, -0.0051276f, -0.0105442f, -0.2099336f, -0.0587998f, 0.0909276f, -0.0932474f, -0.0423350f, 0.1330407f, 0.0263263f, 0.0629232f, 0.0832707f, -0.1336815f, -0.1625923f, -0.2454627f, 0.0263193f, 0.0347748f, 0.0461272f, -0.1605906f, -0.1983199f, 0.0470592f, 0.0095623f, -0.1230540f, 0.0150507f, -0.0295875f, -0.0126599f, 0.0540995f, -0.0350587f, -0.1273801f, -0.2679430f, -0.1109821f, 0.0333225f, -0.0091248f, 0.0610259f, 0.0498316f, -0.0070167f, -0.0000695f, -0.0762086f, -0.0022561f, -0.0081338f, -0.0859826f, -0.1343287f, -0.1041685f, 0.0114261f, -0.0082725f, -0.0002465f, 0.1295382f, -0.1077338f, 0.0262405f, -0.1476505f, 0.0303625f, -0.1137913f, -0.1138553f, 0.0772827f, -0.1318793f, -0.0605833f, -0.1918619f, -0.0010413f, -0.0026837f, -0.1227299f, 0.0165010f, 0.0092328f, -0.0642229f, -0.2422481f, -0.1818492f, -0.1282376f, -0.1921138f, -0.1433552f, -0.2205585f, 0.0699619f, -0.2823042f, -0.1277956f, 0.1432849f, -0.1071425f, 0.0116156f, 0.0038742f, -0.0292314f, 0.0123326f, 0.0125405f, 0.9593770f, -0.0066799f, -0.0092298f, 0.0033065f, -0.0676076f, -0.0010695f, -0.0713679f, -0.0030082f, -0.0080112f, -0.0217546f, -0.0238236f, -0.0386727f, -0.0587624f, -0.0161450f, 0.0045899f, -0.0454445f, -0.0341235f, -0.0175417f, -0.0492632f, 0.4606220f, -0.0602283f, -0.0402837f, 0.0285401f, -0.0839349f, -0.0013527f, -0.0110770f, -0.0332934f, 0.0090983f, 0.0201783f, -0.0274546f, -0.0055562f, 0.1989853f, -0.0104021f, -0.0381640f, -0.0263237f, -0.0112205f, -0.0050821f, -0.0133069f, 0.1249336f, -0.0458877f, 0.0973618f, -0.0031245f, -0.0331039f, -0.0914194f, -0.0179464f, 0.0136468f, -0.0178998f, -0.0235164f, -0.0207684f, -0.0176414f, -0.0440575f, -0.0611183f, -0.0023063f, 0.0034431f, -0.0068488f, -0.0566380f, -0.0229911f, 0.0165857f, -0.0102626f, -0.1913422f, -0.0335828f, -0.0479666f, 0.0451396f, 0.0128268f, 0.0567452f, 0.0222888f, -0.0208415f, 0.0062772f, -0.1698567f, -0.0404528f, 0.0989574f, 0.0221934f, 0.0611617f, -0.2953984f, -0.1116977f, -0.0084417f, -0.1978716f, 0.0384504f, 0.0263434f, -0.0155811f, -0.1103229f, -0.2744146f, -0.0944059f, 0.2059484f, -0.1031590f, -0.1487342f, 0.0393631f, 0.0804024f, -0.0649245f, -0.0331068f, -0.0605902f, 0.0467015f, -0.0388361f, -0.0132705f, -0.0091516f, 0.0651738f, 0.0883663f, -0.1718056f, -0.1604291f, 0.0578379f, 0.0459419f, -0.1054547f, -0.2286962f, 0.0208493f, -0.0154493f, -0.0530184f, -0.0858697f, -0.0525314f, -0.0980273f, -0.0651253f, -0.0730461f, -0.1243422f, 0.0755156f, 0.0758625f, -0.0629755f, 0.0334370f, 0.1236573f, -0.1185943f, -0.2766474f, -0.0004860f, 0.0018524f, -0.3533877f, -0.1662255f, 0.0996375f, -0.0044260f, 0.0527514f, 0.0534874f, -0.0328102f, 0.5122350f, 0.0196740f, 0.0284550f, 0.0044003f, -0.1555903f, -0.0513653f, -0.0329591f, 0.0306178f, 0.1164498f, -0.0990248f, -0.0901388f, 0.0035268f, -0.1984640f, 0.0266233f, -0.0956240f, -0.0157925f, -0.1303310f, -0.1051651f, -0.0101359f, 0.3323812f, -0.0323618f, -0.1311677f, 0.1940535f, -0.0623997f, -0.0139542f, -0.0388386f, -0.0664275f, 0.0405281f, 0.0570263f, 0.0016764f, 0.0011207f, 0.2862334f, 0.0378208f, -0.1202018f, -0.0840739f, 0.0743640f, 0.0643868f, 0.0126634f, 0.1311843f, -0.0272578f, 0.3010703f, -0.0473749f, -0.0768444f, -0.1188794f, -0.0561069f, -0.2113321f, -0.0800229f, -0.0859343f, 0.1185579f, 0.0056616f, -0.0687203f, 0.0160492f, -0.0099687f, -0.1003041f, 0.0491457f, -0.0768807f, -0.0355598f, -0.0130546f, -0.0495947f, 0.1602092f, 0.0771609f, -0.0127476f, -0.1003775f, 0.0267233f, -0.2170774f, -0.0734219f, -0.1253646f, -0.0218179f, -0.1689147f, -0.1360707f, -0.0087382f, -0.0053046f, -0.1342786f, 0.0213133f, -0.2481549f, -0.0040467f, 0.0741368f, -0.0796846f, -0.2139653f, -0.0789963f, -0.0130771f, -0.2377860f, -0.1077374f, -0.1690012f, 0.0249253f, 0.0286315f, 0.0916359f, -0.0035607f, -0.0370031f, -0.0180166f, -0.0860896f, -0.1455721f, -0.1018009f, -0.0588460f, -0.0508554f, -0.0574979f, -0.1201968f, -0.0084004f, -0.1063671f, -0.0934651f, -0.0894623f, -0.0533450f, 0.1629510f, -0.0549149f, -0.3683150f, -0.2254800f, -0.0171434f, 0.0070553f, -0.0071914f, 0.0301356f, -0.1737176f, -0.0463472f, -0.2492948f, 0.0296633f, -0.0268056f, -0.0688526f, -0.1223348f, -0.0130630f, 0.0151778f, -0.0210962f, 0.0332863f, 0.0038886f, 0.1369828f, 0.1894795f, 0.0340590f, -0.1602562f, -0.0735990f, -0.0636121f, -0.1307757f, -0.0282203f, 0.0388416f, -0.0844867f, -0.2279494f, -0.0180360f, -0.0422353f, -0.0264094f, -0.1514371f, -0.0150897f, -0.2196420f, 0.0198950f, 0.0532296f, -0.0734209f, -0.1286048f, -0.0704165f, 0.0062997f, -0.1472180f, -0.0717129f, -0.1226633f, 0.0090975f, 0.0399416f, 0.0695507f, -0.0245434f, -0.0781590f, -0.0808797f, -0.1286974f, -0.1944466f, -0.0110056f, -0.0995723f, -0.0455978f, -0.0049858f, -0.1239895f, 0.0337805f, -0.1323186f, -0.0642655f, -0.1412980f, -0.0997056f, 0.2161547f, -0.0412277f, -0.3042907f, -0.1890156f, 0.0277875f, 0.0236855f, -0.0736912f, 0.0531173f, -0.1176077f, -0.0357522f, -0.2435035f, 0.0057158f, -0.0640477f, -0.0799161f, -0.1020111f, -0.0416811f, 0.0318237f, -0.1892379f, 0.0535066f, 0.0000788f, 0.0947480f, 0.1473569f, 0.0885412f, -0.0339428f, 0.0431596f, 0.0053935f, 0.1285163f, 0.1064038f, 0.1294569f, -0.0798737f, 0.2932061f, -0.1223940f, -0.1547253f, -0.0239490f, 0.1130096f, 0.0016410f, -0.2393755f, 0.0279827f, 0.0787933f, 0.0377136f, 0.0697340f, -0.0250285f, 0.0175439f, -0.1704467f, -0.0441443f, 0.1202582f, -0.2057556f, -0.0523262f, -0.0687695f, -0.2421578f, -0.0421793f, -0.0510165f, -0.0425720f, -0.0637335f, 0.0974489f, -0.2025050f, 0.0806379f, 0.0750771f, -0.0157976f, -0.0519565f, -0.0509638f, 0.0539973f, 0.0826449f, -0.0497447f, 0.0439623f, -0.1199362f, 0.0201497f, 0.0062830f, -0.0060151f, -0.1788529f, 0.0392055f, -0.1075400f, -0.1933074f, 0.1199242f, 0.0853454f, 0.0904593f, -0.0213290f, -0.0300047f, 0.0494386f, 0.0625496f, 0.1716039f, -0.1253058f, 0.0173438f, 0.1903719f, -0.0070237f, 0.0594249f, 0.0446092f, 0.1355256f, -0.1337691f, 0.1277164f, -0.0634636f, 0.0823007f, -0.0241166f, -0.0292442f, 0.2304458f, -0.0178253f, 0.0890448f, 0.0164247f, -0.0603113f, 0.0959430f, -0.0058373f, 0.0637758f, 0.1525429f, 0.0211098f, 0.1819168f, 0.0895702f, 0.0226090f, 0.0123286f, -0.0010541f, -0.0369870f, 0.2440652f, 0.0870142f, -0.2116280f, 0.1411097f, 0.0836322f, 0.0332283f, -0.1161258f, -0.0420060f, 0.0275530f, -0.1622167f, 0.0574193f, 0.0439385f, 0.0875463f, 0.0546007f, -0.0031013f, 0.1551556f, 0.1339332f, 0.0261599f, 0.1595392f, -0.1158756f, 0.0385170f, 0.0394920f, 0.1380511f, 0.2205208f, -0.0322434f, 0.1006940f, 0.0302796f, 0.2230187f, -0.1337369f, -0.0511972f, 0.0137324f, 0.0346994f, 0.1137371f, -0.0229753f, -0.2396424f, 0.0984762f, 0.0593055f, -0.3107412f, 0.1840907f, -0.2966146f, -0.0125082f, -0.0977787f, 0.0011557f, -0.0030334f, 0.0919355f, -0.0106647f, 0.0158274f, 0.0158991f, 0.2034007f, 0.0013237f, 0.0161509f, 0.0185973f, -0.0752683f, 0.0235761f, -0.0579730f, -0.0667099f, -0.0022525f, 0.0076396f, 0.2121800f, 0.0004541f, -0.0792737f, -0.0852868f, 0.0158792f, 0.1430710f, -0.2431360f, -0.2756835f, -0.2802359f, -0.0023936f, -0.0093348f, 0.0553242f, -0.0124818f, -0.1210212f, 0.0009686f, -0.0760984f, -0.0213971f, -0.3803764f, -0.0796548f, -0.1752405f, -0.0580789f, -0.0497479f, 0.0333381f, -0.0096424f, -0.3434970f, -0.0099152f, -0.1610270f, -0.0255926f, -0.0624117f, -0.0035373f, 0.0285549f, -0.1776372f, -0.0215106f, -0.1816697f, 0.1420572f, 0.0172375f, 0.0861705f, 0.0948080f, 0.0049807f, 0.0643256f, 0.1334086f, 0.0465938f, 0.0329464f, 0.1658878f, -0.0905553f, 0.1587489f, 0.1013101f, 0.2403334f, 0.2264248f, 0.0138852f, 0.0577233f, 0.0536026f, 0.1000125f, 0.0244319f, -0.0685106f, 0.1421591f, 0.0905897f, 0.0287582f, -0.0002041f, 0.1142989f, -0.1232220f, 0.0658845f, 0.0366231f, 0.0267068f, 0.0300743f, 0.1916920f, 0.0328865f, -0.0876332f, 0.1134430f, 0.0875109f, -0.0706098f, 0.0159447f, 0.1561497f, -0.0448015f, 0.0566015f, -0.0584077f, 0.0245021f, 0.1082784f, 0.0808284f, -0.0898231f, -0.0050502f, 0.2811348f, 0.0534916f, 0.0041400f, 0.0283753f, -0.0448541f, -0.0873828f, 0.0913766f, 0.0315588f, 0.0248079f, -0.0456176f, 0.1327958f, 0.0049547f, -0.0931358f, -0.0353015f, -0.0453268f, 0.2368433f, 0.0965007f, 0.1185096f, -0.0128536f, -0.0740559f, 0.0208971f, -0.0328516f, 0.0425781f, -0.0046689f, 0.0603673f, 0.0312589f, 0.0348914f, 0.0265188f, -0.3146569f, -0.0998454f, -0.1227906f, 0.0564516f, -0.0235386f, 0.0492496f, -0.0127163f, -0.1088684f, -0.0043043f, -0.1634607f, -0.0528884f, 0.0208710f, 0.0251901f, 0.0808253f, -0.0594794f, 0.0275403f, -0.0458859f, 0.0124589f, 0.0263520f, 0.1160154f, 0.0208012f, -0.0218268f, -0.0779654f, -0.1295746f, 0.0896890f, -0.1346682f, -0.2653824f, 0.0287992f, 0.0640483f, -0.0034731f, 0.0180128f, 0.0691650f, -0.0020235f, -0.0974272f, 0.0325817f, -0.0295733f, -0.4935094f, -0.0229684f, -0.2428682f, 0.0327450f, 0.0099267f, 0.0600956f, -0.0215040f, -0.3410893f, -0.0094819f, -0.0373114f, -0.0608769f, -0.0382755f, 0.0303939f, -0.1460500f, -0.2493481f, -0.0674075f, -0.3112167f, 0.0976713f, 0.0427691f, 0.0275640f, 0.0441726f, 0.1034483f, -0.2093186f, 0.0430489f, -0.0354431f, 0.0216006f, 0.0688448f, -0.0528265f, -0.1437560f, 0.0290375f, -0.1601146f, -0.0303192f, -0.1460676f, 0.0289731f, -0.0146839f, 0.0321315f, -0.0601645f, -0.2111931f, 0.0282656f, -0.0897773f, -0.1241072f, 0.1606510f, -0.0256962f, -0.0697411f, 0.0160713f, 0.0738371f, -0.0506157f, -0.2184363f, -0.1350332f, -0.0639598f, -0.0357776f, 0.0139587f, -0.0050084f, -0.0738069f, 0.0280204f, -0.0112191f, -0.0959442f, 0.0247847f, -0.0846852f, -0.1112600f, -0.0547803f, 0.1178426f, -0.0175810f, -0.0123955f, -0.0605805f, -0.0143969f, 0.0102264f, -0.1129866f, -0.0802737f, -0.2116101f, -0.1438319f, -0.0725798f, -0.0730524f, 0.0401382f, -0.1116932f, 0.1108658f, 0.0283367f, -0.1076431f, 0.0122449f, -0.1044342f, -0.1419517f, -0.1610830f, -0.0933394f, -0.1436819f, -0.0047166f, -0.1772120f, -0.0730176f, 0.3101884f, -0.2958741f, -0.0713803f, 0.0661142f, -0.1461388f, 0.0446757f, -0.0648676f, -0.0207032f, -0.0389695f, -0.0360197f, -0.0019164f, 0.0201010f, -0.2434180f, 0.0234574f, -0.0459263f, 0.1417041f, 0.2008549f, -0.0322111f, -0.0080689f, -0.0715871f, 0.0029301f, 0.0515373f, -0.1141060f, 0.0433376f, -0.1288923f, -0.0249046f, 0.1216292f, 0.0065554f, 0.0467181f, -0.0548000f, -0.2302315f, 0.0165931f, 0.0241892f, -0.1229638f, -0.0186584f, 0.0150817f, 0.0209717f, 0.0309013f, -0.0900321f, -0.0107948f, 0.0017276f, 0.4586743f, -0.1661018f, -0.0326959f, 0.0898863f, -0.0489603f, -0.2664692f, -0.0466094f, -0.0480274f, 0.0483962f, -0.2834627f, 0.1861511f, 0.0401348f, -0.1231926f, 0.0908442f, -0.1085543f, 0.0049105f, 0.0764871f, -0.1289256f, -0.0208198f, -0.0003443f, -0.0665356f, -0.1456131f, -0.1269251f, -0.1509221f, -0.1022106f, 0.0145931f, 0.0853082f, -0.0537994f, -0.0423825f, 0.0241937f, -0.0341023f, -0.0720580f, -0.0331619f, -0.0390792f, 0.0905160f, -0.1526301f, -0.0599723f, 0.0891353f, 0.0832521f, 0.0489472f, -0.1351172f, -0.1229931f, -0.0336954f, -0.2552023f, 0.0074288f, 0.0414902f, -0.1331578f, -0.2942887f, -0.0285610f, 0.0530663f, -0.1601264f, -0.0436356f, 0.0263710f, 0.0649083f, 0.0108334f, -0.0001403f, 0.0339572f, -0.0294331f, -0.1247103f, -0.1328583f, 0.0171727f, -0.0019251f, -0.1095076f, 0.0057717f, 0.0844538f, -0.1101881f, 0.0090010f, -0.0891633f, 0.0714173f, -0.0539668f, -0.0527878f, -0.1025180f, -0.1087936f, 0.2202575f, 0.0353336f, 0.1511322f, 0.0353839f, -0.1310798f, -0.0930527f, -0.1336675f, -0.0990542f, -0.0438796f, -0.1655798f, -0.0948217f, -0.1874052f, -0.1843588f, -0.0674430f, 0.0095286f, -0.0293305f, -0.2003281f, 0.0567933f, -0.1976007f, -0.1534532f, -0.0348504f, 0.1369665f, -0.2045567f, 0.0368184f, 0.0178138f, -0.1080937f, -0.1833956f, -0.1187879f, 0.0992560f, -0.0625975f, 0.0622775f, -0.0685730f, -0.0937875f, -0.0112414f, 0.0566019f, -0.1569249f, -0.0499059f, 0.0050113f, -0.1091650f, -0.1293734f, -0.1341157f, 0.0492055f, -0.0485333f, 0.0136796f, -0.0402486f, 0.0469572f, -0.1967554f, 0.0563576f, -0.0871269f, 0.0659542f, 0.0157910f, -0.1338385f, -0.1025392f, 0.0865210f, -0.1750210f, -0.1619256f, 0.1529599f, 0.0699966f, 0.0462390f, -0.0497044f, 0.0096709f, -0.1092005f, -0.1852272f, -0.0714788f, -0.0760893f, 0.0925347f, -0.0204087f, 0.0930117f, 0.0234208f, 0.0608059f, 0.0244055f, 0.0543168f, -0.2026422f, -0.2282539f, 0.0777813f, 0.0007510f, -0.0366633f, -0.0406395f, -0.2509647f, 0.1608903f, 0.1590692f, -0.3497628f, 0.1032411f, 0.0079763f, 0.0070783f, 0.1492047f, -0.1786103f, 0.0710521f, -0.0045595f, -0.0533693f, -0.0323501f, 0.0023452f, 0.0401020f, 0.0682029f, 0.1626515f, 0.0712597f, -0.1105425f, 0.1979241f, 0.0689386f, 0.1456611f, 0.1128192f, -0.1495521f, 0.0544861f, 0.1096756f, 0.1166374f, 0.0508418f, 0.1280501f, -0.0114101f, 0.1866830f, 0.1785653f, -0.0006261f, 0.1532412f, 0.0746005f, -0.0609139f, 0.0256789f, -0.0963083f, 0.0298738f, -0.1078561f, -0.0435656f, -0.0915093f, -0.0199100f, 0.0617509f, 0.0349106f, -0.0015740f, 0.0203652f, 0.0510787f, -0.0176332f, 0.0264724f, -0.0595239f, 0.0216219f, 0.0966062f, 0.1432089f, 0.0045405f, 0.1568533f, -0.0247244f, 0.1072308f, -0.0710123f, 0.0581955f, -0.0250590f, 0.0482012f, 0.0217396f, 0.0193635f, -0.2536145f, 0.0571782f, 0.1033370f, -0.3853142f, 0.1418619f, -0.2513501f, 0.0905913f, 0.0795837f, 0.2225697f, -0.0016455f, 0.0772891f, -0.1122377f, -0.1035465f, -0.0363576f, 0.2508559f, -0.1036031f, -0.0364449f, 0.0155141f, -0.1359144f, -0.1743636f, 0.0315631f, -0.2472768f, -0.1279975f, 0.0145430f, -0.0679502f, -0.0096076f, -0.2968342f, -0.0449014f, -0.1722061f, 0.1169988f, 0.0382814f, -0.0762512f, -0.1189563f, 0.1379185f, -0.1661368f, -0.1457556f, -0.0610029f, 0.1430329f, -0.0262447f, 0.1888138f, -0.1102213f, -0.0093411f, 0.0655288f, 0.0143621f, 0.0189877f, -0.0218224f, 0.0768861f, 0.1295188f, -0.2448220f, -0.2102898f, -0.1181713f, 0.0053672f, -0.0386882f, -0.0014246f, 0.0046115f, 0.1099780f, 0.0312667f, 0.0346347f, -0.1690216f, 0.0042736f, -0.0016063f, -0.0797307f, 0.1293115f, -0.0272382f, -0.0397594f, -0.1335086f, 0.0178949f, -0.1345399f, 0.0091701f, -0.0804456f, -0.0734621f, -0.0614299f, -0.1915738f, 0.0643210f, -0.1949399f, -0.0236575f, -0.1658870f, 0.0073514f, 0.0819701f, -0.1326745f, -0.1784597f, 0.0039553f, -0.1107560f, 0.0028705f, -0.0862601f, -0.1916758f, 0.0098074f, -0.0508239f, -0.0971485f, -0.0174258f, -0.0947149f, -0.1489567f, -0.2625897f, -0.1521111f, 0.1029703f, -0.2076665f, 0.0093458f, -0.0846562f, 0.0449284f, 0.0316230f, -0.0834247f, 0.0344641f, -0.1643911f, -0.1057531f, 0.0214303f, -0.1389322f, -0.1974524f, -0.1934126f, -0.1199687f, -0.0256359f, -0.0713009f, 0.0123923f, -0.1445625f, -0.1598575f, 0.1561750f, -0.0264247f, 0.0232539f, -0.0191314f, 0.0516968f, -0.0456922f, -0.0620964f, -0.0794013f, 0.0104085f, 0.0074909f, 0.0330924f, 0.0433639f, -0.1416228f, -0.0191215f, 0.0459558f, 0.0163523f, -0.0306844f, 0.1461569f, -0.0573758f, -0.3030744f, -0.1525075f, 0.0692135f, 0.0327406f, 0.0128939f, 0.0837653f, -0.2938094f, -0.2155472f, 0.0182712f, -0.0589287f, -0.0137895f, 0.0775360f, -0.0022659f, -0.0073054f, -0.3051030f, 0.0293964f, 0.0018954f, -0.3276972f, 0.0756211f, -0.0421746f, 0.0232059f, 0.0043820f, 0.0495089f, -0.0041122f, 0.0983533f, -0.3128984f, -0.1171162f, -0.0839931f, 0.0655153f, -0.2261997f, -0.0146582f, 0.0205709f, 0.0067198f, -0.2095582f, 0.0377514f, -0.3507638f, -0.0730818f, 0.0494047f, 0.0138180f, 0.1064776f, -0.2788897f, -0.0897151f, -0.0007627f, -0.2891513f, 0.0402419f, -0.2075106f, 0.0899582f, 0.0281153f, -0.0506984f, -0.0043305f, 0.0216454f, 0.0666029f, 0.0387647f, -0.0208146f, -0.0003676f, 0.0178192f, -0.0076563f, 0.0204412f, 0.0160727f, -0.1559122f, 0.0303299f, 0.0033967f, -0.1143226f, -0.0794872f, 0.1530193f, 0.0705148f, -0.1649753f, -0.0842197f, -0.0868341f, -0.0104825f, -0.0234471f, 0.0086837f, -0.1468659f, -0.1184200f, 0.0470720f, -0.0340517f, -0.1254856f, -0.2250582f, -0.0613541f, -0.1894744f, 0.0349333f, 0.0474543f, -0.0893244f, -0.1741278f, -0.0792092f, 0.0549636f, -0.1629628f, -0.0013324f, 0.0505462f, 0.0646714f, 0.0544554f, -0.0179559f, -0.0680571f, -0.0105790f, -0.1502802f, -0.1401054f, -0.1054824f, 0.0276208f, -0.1126801f, -0.0069761f, 0.1299647f, -0.1878577f, 0.0154351f, -0.0790287f, 0.0206436f, -0.0696692f, -0.1556401f, 0.1157492f, -0.1304152f, -0.2005471f, -0.1410504f, 0.0692140f, 0.0131676f, -0.1013056f, -0.0279271f, -0.0410747f, -0.0981273f, -0.1252098f, -0.0870149f, -0.2031243f, -0.1882202f, -0.1074365f, -0.1427250f, -0.0380973f, -0.0870193f, -0.0342786f, -0.0454644f, 0.0411630f, -0.2686425f, -0.0459290f, 0.0718663f, 0.1246166f, -0.0452569f, 0.0925058f, -0.2334736f, -0.1624665f, -0.0565598f, -0.1183774f, -0.0682147f, 0.0097521f, 0.0566932f, -0.0181112f, -0.1933866f, 0.0303219f, -0.1396337f, -0.1307289f, -0.0316416f, -0.0903046f, -0.1150118f, -0.1468901f, 0.0242622f, -0.1573136f, 0.1320448f, -0.1455736f, -0.0406096f, -0.0940401f, 0.0974843f, -0.1922736f, 0.0300685f, 0.1127517f, -0.1367777f, -0.1336380f, 0.1001178f, -0.2885955f, -0.1004043f, -0.0229261f, 0.0228750f, -0.0644138f, -0.1985195f, 0.0400445f, 0.0500321f, -0.2620159f, 0.1254368f, -0.0377845f, -0.0966693f, 0.0148646f, 0.0194842f, 0.0038946f, 0.0752821f, 0.0429736f, -0.0208417f, -0.0560065f, 0.0066726f, 0.0359573f, -0.0185670f, -0.0401095f, -0.0280755f, -0.1240763f, 0.0900731f, -0.0284484f, -0.2685713f, -0.0002825f, -0.0275056f, 0.0559520f, -0.1207808f, -0.0774320f, -0.1098143f, -0.0214019f, 0.0311419f, 0.0241914f, -0.1106124f, -0.1509021f, 0.0444811f, -0.1388024f, -0.0939296f, 0.0500826f, -0.0749127f, -0.2175459f, 0.0425151f, -0.0711963f, -0.0797119f, -0.1222036f, -0.1139014f, 0.0461720f, -0.1522800f, 0.0569072f, -0.0630278f, 0.0470066f, 0.0325594f, -0.0633138f, -0.2077586f, 0.0277682f, -0.0589051f, -0.1008273f, -0.1049130f, 0.0548488f, 0.0713181f, 0.0071241f, -0.0632784f, -0.0613348f, 0.0064039f, -0.1201783f, 0.1023580f, -0.1109544f, -0.0647051f, -0.0636259f, -0.0842172f, -0.0118818f, -0.0670446f, 0.0905505f, -0.0449735f, -0.0877520f, -0.0720205f, -0.2171038f, -0.0240244f, -0.0706211f, -0.1544486f, -0.0197894f, -0.0971768f, -0.1332571f, -0.1497229f, -0.2137451f, -0.2190221f, -0.0771712f, -0.1665830f, -0.2217142f, 0.1772518f, 0.0173548f, -0.0691416f, 0.0643420f, 0.0032058f, 0.8025671f, 0.0126923f, 0.0217340f, 0.0160563f, 0.0298975f, 0.0083208f, -0.1182321f, -0.0104685f, 0.0046289f, -0.0038604f, -0.0235322f, -0.0346826f, -0.0856227f, -0.0023427f, -0.0309770f, -0.0049157f, -0.0364837f, -0.0594135f, 0.0178264f, 0.6048044f, 0.0153565f, -0.0564380f, 0.1075383f, -0.1392326f, 0.0290058f, 0.0120807f, -0.0342714f, 0.0298229f, 0.0319891f, -0.0909207f, 0.0231462f, 0.2118852f, -0.0258252f, -0.1336055f, -0.0554221f, 0.0105112f, 0.0042241f, -0.0013685f, 0.1772758f, -0.0695290f, 0.3039913f, -0.0057239f, -0.0353618f, -0.2075247f, -0.0556658f, -0.0441537f, 0.0061561f, -0.0666536f, -0.0473186f, -0.0260124f, -0.0518899f, -0.1132813f, -0.0307673f, 0.0094503f, 0.0459114f, -0.0577748f, -0.0209943f, 0.0511941f, -0.0346724f, 0.0932338f, 0.0437625f, -0.1451778f, -0.2040269f, -0.2331864f, -0.0017899f, 0.0045644f, 0.0601832f, -0.1304697f, -0.1720255f, 0.0543528f, -0.0764322f, -0.1144680f, 0.0741769f, -0.0751447f, -0.0124944f, 0.0384313f, -0.0530322f, -0.0709142f, -0.1249221f, -0.2706787f, 0.0422066f, 0.0267595f, 0.0412736f, 0.0657736f, -0.0377370f, 0.0169238f, -0.0407378f, -0.0618311f, 0.0385960f, -0.1004847f, -0.0842430f, -0.1341026f, 0.0193463f, 0.0163728f, 0.0192122f, 0.1244874f, -0.1423244f, 0.0421525f, -0.0469685f, 0.0255483f, -0.1417905f, -0.1571831f, 0.1280593f, -0.0859497f, -0.1367677f, -0.2545749f, -0.0333766f, -0.0052595f, -0.0389471f, 0.0781117f, -0.0088751f, 0.0230019f, -0.0071349f, -0.1802720f, -0.0685420f, 0.0215042f, -0.1991460f, -0.1460565f, 0.1008958f, -0.3236827f, -0.0819640f, 0.1185956f, -0.1290106f, -0.3320592f, -0.0394700f, 0.0113516f, -0.0310979f, 0.0704562f, 0.0637799f, -0.1798393f, -0.1317958f, 0.0249447f, 0.1656952f, -0.1379189f, -0.0098230f, 0.0004716f, -0.1691955f, -0.1033665f, -0.0501632f, -0.0442271f, -0.0140085f, -0.0181809f, -0.0608720f, -0.0109850f, -0.0275804f, 0.0762293f, -0.0878018f, 0.1153628f, -0.3259667f, 0.0266334f, -0.3375686f, 0.0460061f, -0.0890015f, -0.0640622f, -0.0029559f, 0.0708782f, -0.0810626f, -0.0670114f, -0.2505419f, -0.1052003f, 0.0996817f, 0.0324159f, 0.1405017f, -0.1925724f, -0.1956851f, -0.0011701f, -0.3448005f, 0.0833606f, -0.3489240f, 0.0479167f, -0.0935927f, -0.0226911f, 0.0097830f, 0.0891398f, -0.0273937f, -0.0685371f, 0.0595366f, 0.0120219f, 0.0413346f, -0.0497826f, -0.0523764f, -0.0287147f, -0.1595003f, 0.1123819f, 0.0277971f, -0.2821496f, -0.0946978f, 0.1030469f, 0.0376958f, -0.0084111f, -0.0190862f, -0.0245604f, 0.8326505f, -0.0027982f, 0.0027680f, 0.0285678f, 0.1597021f, 0.0575274f, -0.1164414f, -0.0279523f, -0.0720278f, 0.0311976f, -0.0438221f, -0.0794841f, -0.0769161f, -0.0120078f, -0.0894580f, -0.0586606f, -0.0393075f, -0.0119193f, 0.0398585f, 0.5562856f, -0.0771814f, -0.0239953f, -0.0030062f, -0.0956473f, -0.0218995f, -0.0188858f, -0.0285638f, 0.0029270f, 0.0159835f, -0.0056775f, -0.0079946f, 0.0819100f, -0.0137308f, -0.0325506f, -0.0155632f, -0.0196211f, -0.0069135f, -0.0610087f, 0.1096354f, -0.0563150f, 0.1374135f, -0.0552921f, -0.0352118f, -0.1514563f, -0.0458760f, -0.0322569f, 0.0111902f, -0.0695316f, 0.0648109f, -0.0246403f, -0.0486381f, -0.0414910f, -0.0232280f, -0.0212980f, 0.0854976f, -0.0697773f, -0.0300421f, 0.0961902f, -0.0070521f};
static const float b4[] = {0.0000072f, 0.0000110f, -0.0000248f, -0.0000690f, 0.0000092f, 0.0000003f, -0.0000171f, -0.0001172f, -0.0000435f, -0.0000488f, -0.0000086f, 0.0000545f, 0.0000302f, 0.0000152f, -0.0002107f, -0.0000002f, 0.0000074f, 0.0001277f, -0.0000018f, -0.0000802f, -0.0000144f, 0.0000058f, -0.0001163f, 0.0000089f, 0.0000181f, 0.0000151f, -0.0000652f, -0.0000515f, -0.0001639f, -0.0000532f, -0.0000020f, -0.0000524f};
static const float bn5_g[] = {0.6615372f, 0.3653314f, 0.6394800f, 0.7247403f, 0.5235668f, 0.5740302f, 0.7389193f, 0.6905656f, 0.6348727f, 0.6035722f, 0.7002390f, 0.7014829f, 0.5662386f, 0.4901917f, 0.6532112f, 0.3380518f, 0.6380238f, 0.6474610f, 0.4969320f, 0.7506445f, 0.6337338f, 0.4963235f, 0.6053540f, 0.6903334f, 0.6286519f, 0.7453691f, 0.6493493f, 0.6728552f, 0.7538818f, 0.6715153f, 0.6407521f, 0.6690989f};
static const float bn5_b[] = {-0.2420834f, 0.0125459f, -0.3883595f, -0.3806149f, -0.2778933f, -0.1748222f, -0.3162909f, -0.4034639f, -0.3574501f, -0.2927832f, -0.2512233f, -0.2512734f, -0.2029588f, -0.2391396f, -0.3637928f, 0.0960814f, -0.3218372f, -0.3795954f, -0.0733169f, -0.3008909f, -0.3371316f, -0.2791463f, -0.2617403f, -0.3216402f, -0.2492252f, -0.2838688f, -0.3731980f, -0.3511203f, -0.3127815f, -0.2466812f, -0.2723459f, -0.3557664f};
static const float bn5_rm[] = {-0.1884368f, 0.0015521f, -0.1554360f, -0.2069753f, -0.1646074f, -0.1751376f, -0.2433752f, -0.0524138f, -0.1619340f, -0.0718313f, -0.1753985f, -0.1827522f, -0.0416985f, 0.0964719f, -0.1285502f, 0.1378185f, -0.1342421f, -0.1871479f, -0.0276182f, -0.1931747f, -0.1420216f, 0.1036487f, -0.1326756f, -0.1989041f, -0.1575090f, -0.2225507f, -0.1856458f, -0.2146374f, -0.0489799f, -0.1966998f, -0.1501870f, -0.0605920f};
static const float bn5_rv[] = {0.1617097f, 0.0367330f, 0.0729901f, 0.1615327f, 0.0578481f, 0.0994369f, 0.2114697f, 0.0092524f, 0.0616794f, 0.0399095f, 0.0960395f, 0.1050154f, 0.0561074f, 0.0364198f, 0.0406524f, 0.0568165f, 0.0440535f, 0.1051255f, 0.0379151f, 0.1386432f, 0.0709880f, 0.0448649f, 0.0536184f, 0.1011745f, 0.0472545f, 0.1583958f, 0.0496789f, 0.1238760f, 0.0207058f, 0.1545267f, 0.0414053f, 0.0149722f};
static const float W8[] = {-0.0021085f, 0.0381248f, -0.1982903f, 0.0544190f, -0.0350278f, -0.0211355f, 0.0315762f, -0.0863807f, 0.1416980f, -0.0968797f, -0.0247838f, -0.0069176f, -0.0410127f, 0.1065146f, 0.0140812f, -0.0980078f, 0.2364901f, 0.1301752f, 0.1873600f, -0.0125513f, 0.2381111f, -0.1029651f, 0.0790747f, -0.0698923f, -0.0504287f, -0.0177510f, -0.1023421f, 0.0931477f, 0.2915876f, 0.0253100f, -0.0397199f, -0.0860347f, 0.0561370f, 0.0242958f, -0.3013117f, 0.0810354f, -0.1035566f, 0.0125559f, 0.0566155f, -0.0593138f, -0.1180427f, -0.0845881f, 0.0139191f, 0.0721728f, -0.0450567f, -0.0878002f, -0.2011836f, -0.1046664f, -0.1946025f, 0.1602213f, -0.0149394f, 0.0627136f, -0.2560994f, -0.0990367f, -0.1102219f, -0.0843436f, -0.0835398f, 0.0942729f, -0.1788637f, 0.0288540f, -0.0280618f, 0.0574056f, -0.1574732f, -0.0330265f, -0.0228453f, -0.0210206f, -0.1430755f, 0.0374516f, 0.2061377f, 0.0005631f, -0.0137158f, -0.2410902f, 0.2339356f, 0.0093191f, -0.0028636f, 0.0066760f, -0.0188258f, 0.1735243f, 0.1235286f, 0.1191786f, -0.0352535f, 0.0509865f, 0.1390377f, -0.0618525f, -0.0008579f, -0.1749865f, 0.0762591f, -0.1319446f, -0.1605325f, -0.0332913f, 0.1770192f, 0.0387598f, 0.1947784f, -0.0209715f, 0.1619042f, -0.0355461f, 0.1048590f, 0.0218322f, 0.0208560f, 0.3677022f, -0.0394231f, 0.0999614f, 0.2047675f, -0.0774315f, -0.0149054f, -0.0463660f, -0.0924443f, 0.0006760f, -0.0615520f, 0.0056338f, -0.0449051f, -0.0115506f, -0.0122850f, 0.3663208f, 0.0022116f, -0.0114101f, 0.0049422f, -0.0176382f, -0.0274025f, -0.0908175f, -0.0289353f, 0.0986062f, -0.0322981f, 0.2847328f, -0.0211968f, -0.0004281f, -0.0227255f, -0.0863421f, -0.1746395f, 0.1118965f, -0.1273692f, -0.1661092f, 0.0494554f, -0.0472765f, -0.2208547f, -0.2952103f, -0.0068234f, -0.0017829f, -0.0509095f, -0.0530481f, 0.0429905f, 0.0424306f, 0.0325644f, 0.0412323f, 0.0335987f, 0.0179542f, 0.0601460f, -0.1623871f, -0.0571068f, 0.0466811f, 0.0676648f, -0.0496359f, 0.1113771f, -0.1369562f, 0.1111221f, -0.1030188f, -0.2262337f, -0.1555186f, -0.0750457f, 0.2955304f, -0.0110689f, 0.0057876f, -0.2935166f, 0.0665084f, -0.0960957f, 0.0038364f, -0.0176715f, -0.1266366f, -0.0853828f, -0.1254101f, 0.0153269f, 0.0312644f, -0.0747577f, -0.0642878f, -0.2143077f, -0.1170045f, -0.1352091f, 0.2024925f, -0.0129093f, 0.0735682f, -0.1533705f, -0.0945198f, -0.0976944f, -0.0201158f, -0.0740245f, 0.0624995f, -0.1135971f, 0.0427260f, -0.0259078f, 0.0537253f, -0.1080091f, -0.0752531f, -0.0905948f, 0.0853331f, -0.1738758f, -0.1023241f, 0.1193407f, -0.0213934f, -0.0937334f, -0.1853486f, 0.1134522f, 0.3520218f, -0.0466513f, 0.0206606f, -0.0235002f, 0.0932682f, -0.0733334f, 0.0776669f, 0.0306935f, 0.0335698f, 0.0780893f, -0.1498353f, -0.0586838f, 0.0437751f, 0.1652157f, -0.0507268f, 0.1574962f, -0.0715821f, 0.0342621f, 0.0195656f, -0.1021741f, -0.0473671f, 0.0596376f, -0.0223554f, -0.2982563f, 0.0682433f, -0.1718373f, -0.2018187f, -0.0358706f, -0.1909029f, -0.3447133f, -0.0214098f, 0.0409026f, -0.0299395f, -0.1697831f, -0.1435069f, -0.0464423f, -0.0020523f, 0.0067225f, -0.0196323f, -0.0007417f, 0.0471063f, -0.0252012f, -0.3433557f, 0.0598264f, -0.0048194f, -0.0193425f, -0.2061438f, -0.0147099f, -0.2811300f, 0.0162482f, -0.2498348f, -0.0167809f, -0.2725188f, 0.0129165f, 0.0016002f, -0.0714026f, 0.0217167f, -0.2735522f, -0.1019064f, -0.0511372f, -0.1118182f, -0.1577251f, 0.2484349f, -0.0102363f, 0.0156945f, -0.1573932f, -0.1317828f, 0.0016769f, -0.0246129f, -0.0338328f, -0.0236187f, -0.0119312f, 0.0559801f, -0.0160878f, -0.0502815f, 0.0154588f, -0.0036898f, -0.0713887f, -0.1951717f, -0.0065473f, -0.0899386f, -0.0019465f, -0.0962165f, 0.0680032f, -0.1016032f, -0.0223231f, 0.1976357f, -0.1727480f, 0.1004409f, -0.1457410f, -0.0745564f, 0.1068712f, -0.2638113f, -0.0968983f, 0.0279926f, 0.1018967f, 0.0560263f, -0.3005956f, -0.2743015f, 0.0721698f, 0.0361338f, -0.1024768f, 0.0109512f, 0.1037546f, 0.1153095f, 0.1118936f, -0.1171678f, -0.0134121f, 0.0450599f, 0.0031284f, -0.2164019f, -0.0560536f, -0.1552346f, -0.0317579f, 0.0533685f, 0.0285732f, -0.1597158f, -0.0106548f, -0.2560239f, 0.0146533f, -0.1263728f, -0.1426570f, 0.0049582f, 0.0643145f, 0.0535979f, 0.0402418f, 0.1801877f, -0.1565468f, -0.0201708f, 0.0803229f, 0.0721999f, 0.2785591f, -0.0459328f, 0.0165164f, -0.0170469f, 0.0771526f, -0.0014538f, -0.1086289f, 0.0156562f, -0.0585535f, 0.1905898f, 0.1151161f, 0.1092634f, 0.3007882f, 0.0274735f, 0.0058498f, 0.0346693f, -0.1928694f, 0.0198696f, 0.0379959f, -0.0588571f, -0.0649999f, 0.0124461f, 0.1791607f, 0.0856719f, -0.0861679f, 0.0014876f, -0.0284394f, -0.1438281f, -0.1844184f, -0.0926464f, 0.0567927f, 0.0231598f, -0.0472983f, -0.0470418f, -0.2718248f, -0.0928996f, -0.2211520f, 0.2252516f, -0.0220696f, 0.0509665f, -0.1013618f, -0.0549855f, -0.1041905f, 0.0765373f, -0.0892786f, -0.0414511f, -0.1310603f, 0.0126252f, -0.0301173f, 0.0557543f, -0.1292360f, -0.0836577f, -0.0910781f, 0.0957857f, -0.1367104f, -0.0796616f, 0.1023469f, -0.0701483f, -0.1667774f, -0.0182198f, 0.1395411f, 0.2669663f, -0.0775531f, -0.0489682f, 0.1103576f, -0.2183860f, 0.0117741f, 0.0858242f, 0.0029464f, 0.0129569f, 0.0579532f, -0.1371314f, 0.1359122f, 0.1148891f, 0.0449563f, -0.0843338f, 0.0335902f, -0.1550267f, -0.0025907f, -0.0907870f, -0.1913791f, -0.0918752f, 0.0096178f, -0.1929977f, 0.0051318f, 0.0237817f, -0.1027242f, 0.3010319f, -0.0338151f, 0.0754123f, 0.1408728f, -0.1163270f, -0.0213059f, -0.0601792f, -0.1482122f, 0.1075690f, -0.0701730f, -0.0135290f, -0.0598799f, -0.0150815f, -0.0218522f, 0.3958718f, 0.0066900f, -0.0102676f, -0.0238925f, -0.0372685f, -0.0359035f, -0.0882299f, -0.0453789f, 0.0826359f, -0.0545297f, 0.2580568f, -0.0455467f, 0.0569947f, -0.0351679f, -0.1410540f, 0.0063071f, -0.0032499f, -0.0820612f, 0.0311507f, -0.0022772f, -0.0193185f, -0.0320909f, 0.4279970f, -0.0097540f, 0.0037915f, 0.0003397f, -0.0202198f, -0.0116703f, -0.0004740f, 0.0162674f, -0.0053054f, -0.0101080f, 0.0292502f, -0.0045955f, 0.0381371f, 0.0041744f, -0.0012248f, -0.0036096f, -0.0375118f, -0.0079261f, 0.0210468f, 0.0033118f, -0.0326630f, 0.0164129f, -0.0115445f, 0.0026686f, 0.1977249f, 0.0485287f, 0.0543384f, -0.1146745f, 0.1382380f, -0.0214340f, -0.0038608f, 0.1589749f, -0.1050672f, 0.0275557f, -0.0689371f, 0.2631458f, 0.0049875f, -0.0634023f, -0.0399587f, -0.0702153f, -0.0215250f, -0.0132943f, 0.3104641f, 0.0131996f, 0.0829073f, -0.1307461f, -0.0603137f, -0.0511433f, -0.1222809f, -0.0284202f, -0.0675999f, -0.0997005f, 0.2655866f, -0.0424937f, 0.0677294f, -0.0575134f, -0.1052443f};
static const float b8[] = {-0.0000394f, -0.0000539f, 0.0000244f, 0.0000708f, 0.0000911f, 0.0000503f, 0.0000276f, 0.0000400f, 0.0000451f, -0.0000060f, 0.0000567f, -0.0000563f, 0.0000126f, 0.0000593f, 0.0000143f, 0.0000149f};
static const float bn9_g[] = {0.8189067f, 1.0019275f, 0.8745199f, 0.8696000f, 0.9102257f, 0.9786127f, 0.9027565f, 1.0258659f, 0.8169369f, 0.9918439f, 0.8825468f, 0.9927828f, 0.9333074f, 0.9050499f, 0.9249040f, 0.9276654f};
static const float bn9_b[] = {0.0210569f, -0.3048728f, 0.3089983f, -0.0821870f, 0.2357996f, -0.2155225f, 0.3816270f, -0.1887929f, 0.1293210f, 0.0785001f, 0.1112340f, -0.2548039f, 0.2387238f, -0.1800478f, 0.0065445f, -0.2229089f};
static const float bn9_rm[] = {0.0362315f, -0.1101409f, 0.0512878f, -0.0031938f, -0.0262904f, -0.1109541f, 0.0501934f, -0.1256655f, -0.0356274f, -0.0629895f, 0.0543298f, -0.1093254f, -0.0180290f, -0.0320248f, 0.0354744f, -0.0276759f};
static const float bn9_rv[] = {0.0103334f, 0.0294150f, 0.0150944f, 0.0073616f, 0.0242749f, 0.0222464f, 0.0329377f, 0.0155812f, 0.0135346f, 0.0204898f, 0.0147074f, 0.0224258f, 0.0248010f, 0.0098393f, 0.0126937f, 0.0098463f};
static const float W12[] = {0.4883112f, -0.6571763f, 0.5653620f, -0.4148274f, 0.6069426f, -0.5142461f, 0.6172327f, 0.6459009f, 0.3528717f, 0.6643872f, 0.4776886f, -0.5608222f, 0.6385593f, -0.4875233f, 0.3458254f, -0.4861607f};
static const float b12[] = {-0.2863946f};
static const float IN_MEAN[] = {8.8011255f, 6.9424148f, 5.8712745f, 10.4434118f, 18.3277264f, 25.3170757f, 30.9003506f, 35.1644478f, 31.8141937f, 29.9533978f, 33.6655579f, 40.2604332f, 37.3830070f, 28.9120674f, 22.3482246f, 20.6354523f, -1.8588151f, -1.0710787f, 4.5721769f, 7.8846116f, 6.9894805f, 5.5825100f, 4.2651563f, -3.3510127f, -1.8610289f, 3.7129385f, 6.5926709f, -2.8773315f, -8.4696083f, -6.5646081f, -1.7126718f, 29.5555344f, 14.8189955f};
static const float IN_STD[] = {8.3480806f, 7.1472077f, 6.5574937f, 12.2651062f, 23.0824413f, 32.5701370f, 41.9110146f, 48.1107597f, 44.9396591f, 42.6312637f, 49.9573975f, 60.0513916f, 58.2825050f, 45.8668060f, 36.0809517f, 34.4713707f, 4.7266788f, 3.4133472f, 7.0413952f, 13.1583548f, 15.2627621f, 18.4750385f, 19.5023804f, 18.8358078f, 17.0021057f, 19.1332951f, 22.5434589f, 22.8338833f, 21.5578251f, 18.6117229f, 12.8043442f, 40.0077171f, 20.0264702f};

static const float FEAT_W[] = {0.1f, 0.1f, 0.1f, 0.2f, 0.4f, 0.6f, 0.8f, 1.0f, 1.0f, 1.0f, 1.2f, 1.5f, 1.5f, 1.2f, 1.0f, 1.0f};

// ===== DRONENET INFERENCE =====
float runDroneNet(float *mag) {
    float wb[16];
    for (int i = 0; i < 16; i++) wb[i] = logf(1.0f + mag[i]) * 100.0f * FEAT_W[i];

    float x[33];
    for (int i = 0; i < 16; i++) x[i] = wb[i];
    for (int i = 0; i < 15; i++) x[16 + i] = wb[i + 1] - wb[i];
    float mean16 = 0, sum4 = 0;
    for (int i = 0; i < 16; i++) mean16 += wb[i];
    mean16 /= 16.0f;
    for (int i = 4; i < 16; i++) sum4 += wb[i];
    float var = 0;
    for (int i = 0; i < 16; i++) var += (wb[i] - mean16) * (wb[i] - mean16);
    x[31] = sum4 / 12.0f;
    x[32] = sqrtf(var / 16.0f);

    for (int i = 0; i < 33; i++) x[i] = (x[i] - IN_MEAN[i]) / IN_STD[i];

    float h0[64];
    for (int i = 0; i < 64; i++) {
        float v = b0[i];
        for (int j = 0; j < 33; j++) v += W0[i*33+j] * x[j];
        v = (v - bn1_rm[i]) / sqrtf(bn1_rv[i] + 1e-5f) * bn1_g[i] + bn1_b[i];
        h0[i] = v > 0 ? v : 0;
    }
    float h1[32];
    for (int i = 0; i < 32; i++) {
        float v = b4[i];
        for (int j = 0; j < 64; j++) v += W4[i*64+j] * h0[j];
        v = (v - bn5_rm[i]) / sqrtf(bn5_rv[i] + 1e-5f) * bn5_g[i] + bn5_b[i];
        h1[i] = v > 0 ? v : 0;
    }
    float h2[16];
    for (int i = 0; i < 16; i++) {
        float v = b8[i];
        for (int j = 0; j < 32; j++) v += W8[i*32+j] * h1[j];
        v = (v - bn9_rm[i]) / sqrtf(bn9_rv[i] + 1e-5f) * bn9_g[i] + bn9_b[i];
        h2[i] = v > 0 ? v : 0;
    }
    float logit = b12[0];
    for (int j = 0; j < 16; j++) logit += W12[j] * h2[j];
    return 1.0f / (1.0f + expf(-logit));
}

// ===== SETUP =====
void setup() {
    Serial.begin(115200);
    analogReadResolution(12);
    tm.begin();
}

// ===== LOOP =====
void loop() {
    for (int i = 0; i < FFT_SIZE; i++) {
        int raw = analogRead(ADC_PIN);
        samples[i] = smoothSample((float)(raw - 2048));
        delayMicroseconds(1000000 / SAMPLE_RATE);
    }

    computeFFT();
    float magnitudes[FFT_SIZE];
    getMagnitudes(magnitudes);

    confidence = runDroneNet(magnitudes);
    int pct = (int)(confidence * 100.0f + 0.5f);
    if (pct > 100) pct = 100;
    if (pct < 0)   pct = 0;

    tm.clearScreen();
    uint8_t offset = (pct < 10) ? 3 : (pct < 100) ? 2 : 1;
    tm.display(pct, false, false, offset);

    if (confidence >= DETECTION_THRESHOLD)
        neopixelWrite(LED_PIN, 255, 0, 0);
    else
        neopixelWrite(LED_PIN, 0, 100, 0);

    for (int i = 0; i < FFT_SIZE; i++) {
        Serial.print(magnitudes[i]);
        if (i < FFT_SIZE - 1) Serial.print(",");
    }
    Serial.print(" | confidence:");
    Serial.println(confidence);
}
